solver_type L2R_L2LOSS_SVC_DUAL
nr_class 2
label 1 2
nr_feature 48701
bias -1
w
0.000200150162205136 
2.771694687991947e-05 
0.0001703499753749358 
8.704707543293022e-05 
0.0003386522109938605 
-0.0001413906005152069 
0.000249060687437516 
4.877677809266656e-05 
-6.743366999638474e-05 
-9.095772597212137e-05 
-7.86983401463008e-05 
-0.0001273025952511581 
1.684277529550423e-07 
0.0001137574359630671 
3.776217530478768e-05 
0.000124585247783056 
0.000125560406018769 
-6.39011726203181e-05 
-2.1171709022444e-05 
-1.901174774184542e-05 
-2.081782869090341e-05 
-5.953262708393693e-05 
6.960767837568871e-05 
6.577419414893255e-05 
0.0001200323206761508 
-3.791700840668985e-05 
-0.0003166248752468542 
0.0003928728909954314 
-0.0002660177794819651 
4.704603757215781e-06 
0.0002654414165829537 
0.0002433556816380375 
7.701045651834351e-05 
8.176887227915365e-05 
2.954838384406148e-05 
0.0001091038772882851 
-9.224502211261612e-05 
7.734129555105676e-05 
0.0001845478229552684 
-8.716496749377659e-06 
-4.844107460769429e-05 
0.0001029767365398067 
0.0001144309988990798 
-0.0001315706328615259 
4.76121506306275e-05 
-0.0001334624535584317 
-0.0001878211244255244 
-7.209706872472258e-05 
-9.55228296423461e-05 
-0.000181985326347014 
0.0002138313547813624 
-1.85511412080952e-05 
-5.858656291221384e-05 
0.0001410993767897249 
2.015146519490635e-06 
-0.0001697754812017172 
-1.224093239541583e-05 
9.877307519589308e-05 
4.532560938883595e-05 
-0.0002455853557507183 
8.676740306095309e-05 
-2.465836290321732e-05 
9.518486252960387e-05 
-5.728137474046163e-05 
-5.114894550862188e-05 
5.618659796482483e-05 
-1.041207977099974e-05 
-7.784522647931439e-06 
0.000272000922689371 
-0.000290849036366207 
4.093956286429503e-06 
5.113750345676972e-05 
1.010618353085132e-05 
-0.0002164903164673642 
-3.048755173062251e-05 
1.168825651962497e-05 
-8.216764192248485e-05 
-0.0003083676885941207 
-9.762680663193398e-05 
4.46242076330589e-05 
-0.0001239780740068595 
-0.0001417514801829519 
7.52740152267914e-05 
-0.0003144052839118845 
-3.304969240661544e-05 
6.467369038801613e-05 
4.154742256909471e-06 
-9.52836762155991e-06 
0.0001629634451269468 
-3.012533984115105e-05 
8.323520784011054e-05 
3.537188486227989e-05 
-4.982505708410137e-06 
-0.0002364401577221211 
-0.00021624699769953 
-2.253367420021364e-05 
-0.0002315404908416319 
1.988000028177336e-06 
-0.0002451012299593512 
-4.53696921273387e-05 
5.785184314485277e-05 
6.407065780676487e-05 
-0.0001118636185215007 
-0.0001237480176149892 
7.364300451971387e-05 
9.386178271423868e-05 
0.0002429430742844117 
0.0003291517844667146 
-7.221715040770128e-05 
0.0001759477077009662 
9.815371546904555e-05 
-6.586905862272269e-05 
-0.0002939635025572181 
-0.0002071761937184738 
-5.834964917520887e-05 
8.028709393030375e-05 
-4.450314037681766e-05 
-0.0001385721663272722 
0.0001452934991575402 
7.288430756710764e-05 
0.0001304600664389096 
1.725960460757151e-05 
-7.57956055195438e-05 
9.983218172348284e-05 
-0.0001926197424345842 
1.571521953633996e-05 
-5.697517800361597e-05 
0.0002694028449863832 
6.348301622869961e-05 
-7.593849952496045e-05 
-0.0001145232028865327 
9.909976448019029e-05 
7.931519297701504e-06 
-0.0001086703800743674 
-0.0001036616003129635 
6.842659193668207e-05 
0.00023091736591266 
0.0001626949742183667 
-4.189468337869671e-05 
4.754917550671537e-05 
0.0001500569068265885 
-8.834542192165485e-05 
1.021774844562528e-05 
0.0002368052917848628 
-5.159085170105289e-05 
-9.996210298330984e-06 
-0.0001799803712794524 
4.460549230905768e-05 
-0.0002193948109666477 
0.0001136167315301817 
-0.0001406376742641833 
-3.823943375514329e-05 
-7.347645308489752e-05 
7.07172737305519e-05 
7.296388021298387e-05 
0.0001361389811079481 
-0.000133003563963316 
4.814031980291649e-05 
8.40225795343966e-06 
2.734495045674093e-05 
0.000117352311409733 
3.829695104518992e-06 
4.607674920646278e-05 
6.851234503955369e-05 
3.560839852274937e-05 
-9.713745113933283e-05 
-0.0001296046549076007 
-0.0001971558713064377 
4.136943862806262e-05 
-0.0002976148255256761 
0.0001231133219229108 
0.0001539876995773875 
1.830168850949779e-05 
0.0001227846883111101 
-8.548044458044107e-05 
-0.000117781270971336 
-0.0002748975384542964 
0.0002452112426397024 
6.56669510033192e-05 
-5.8798544468211e-05 
3.362780752484812e-05 
-7.775612885151727e-05 
5.411317412193543e-05 
-4.777903986255567e-05 
-0.0001614762556017187 
0.0001236352679676628 
-0.0001416806585223231 
4.239759393142957e-05 
-2.05566495958909e-05 
8.052905587478254e-05 
-8.093344670047323e-05 
6.5745258964387e-05 
-5.718166744238053e-05 
0.0001574714300884695 
-0.0001806118775460139 
0.0001927807423001065 
7.755677972773057e-05 
0.0001335071126057515 
0.000104205262438341 
7.721126092728036e-05 
-9.50067977483235e-06 
5.255958820152446e-05 
0.0001469099836508549 
-0.0002690039084492117 
5.551348322840527e-05 
3.835514506882701e-06 
-0.0001269238949521296 
9.203689756440413e-05 
-9.236978063546761e-06 
0.0001058437770484643 
1.962741029995132e-05 
0.0001079215764432499 
8.779857997539814e-05 
-1.220121246854138e-05 
0.0001125406316125468 
-5.529893453740503e-05 
1.631976076581046e-05 
-0.0001729506769392363 
-0.0001459836810506266 
0.0001409051519219027 
0.0001224310115963452 
6.104222047104508e-05 
7.583292528285312e-05 
7.64991599574359e-05 
0.0002569361363923303 
6.392548640516253e-06 
2.768788824834167e-05 
0.0002593930317462062 
2.631267118254004e-05 
4.440626708193684e-06 
0.0001849745723102687 
-8.298862859781623e-05 
9.719119248587618e-05 
2.351799199128016e-05 
8.243608617419288e-05 
9.834602072840598e-05 
4.550946417636166e-05 
-0.0001192311381299587 
0.0001293350662209365 
-9.848756497606743e-05 
0.0001023636818557815 
0.0001199675703413686 
0.0001729282637214967 
0.0001982325673747396 
-0.0001542137217143414 
-0.0001930144071547066 
0.000120250840674256 
0.0001076923864359128 
0.0001580366062004929 
-8.384467943290843e-05 
-0.0002169724577403763 
-0.000140986586172083 
-1.370990189065656e-05 
7.22261832798029e-05 
-3.990246469432786e-05 
5.458002932551031e-05 
6.84273249455445e-05 
8.902064416745814e-05 
-6.122123212972952e-05 
0.0002869295906747773 
0.0001296449290139699 
-4.765194949282403e-05 
3.102659764995331e-05 
-8.862047604354019e-05 
-0.0001392613378112454 
-0.0002088607987619194 
4.988752488963359e-05 
-0.0001073833763719596 
4.144200264407853e-05 
-7.093229388462633e-05 
7.943538025578007e-05 
2.746705650412724e-05 
0.000157165815462296 
-8.151227617062407e-06 
-1.384876301558615e-05 
0.0001327646629074594 
-4.830511704703258e-05 
-0.0001316711876367476 
-6.432920749193221e-05 
-0.0002688306294346599 
-9.313824174243582e-05 
3.28579815348936e-05 
2.240330417566666e-05 
0.0001699579098331029 
3.003586979736265e-05 
3.211332449339079e-05 
0.0001175623091052483 
-3.983151167133943e-06 
-8.48152741496006e-05 
-0.0001400523562025033 
0.0002756917865234439 
-0.0001841945931512549 
7.920913441019465e-06 
0.0001420664629443935 
-2.241613685440596e-05 
-4.134624842120636e-06 
0.000111379183087312 
-2.687674976077371e-05 
2.580226953593414e-05 
-9.093745757667169e-05 
7.79554433742525e-05 
-0.0001118662093307605 
-6.838308279106284e-05 
7.328554723238975e-05 
1.203917234785079e-05 
-8.608162587147355e-07 
5.512338074990069e-05 
-0.000107355868267538 
6.608867674970103e-05 
-4.48978851896975e-05 
-7.166771786113114e-05 
-7.056740096399783e-05 
-6.528270081561271e-05 
-0.0001269800374443041 
8.445414884834286e-05 
-6.71384250515176e-05 
-7.964089794292522e-05 
0.0001087424358423666 
-0.0001954237285082961 
-8.391843916774222e-05 
0.0001150584865242041 
3.997412739454135e-05 
3.931866232365068e-05 
-0.0001019891695091576 
-5.326837811238644e-05 
-0.0001564781329302312 
0.000152072978513075 
-2.547675224095575e-05 
-7.880790643612209e-05 
-7.534772512073175e-05 
-2.142472644158526e-06 
2.883742513873042e-05 
1.598183290339092e-05 
2.14628569180629e-05 
0.0001728376300437223 
-1.318732628959745e-05 
-0.0003174853746380738 
-9.792839203643904e-05 
-0.0001855230151091004 
0.0001023566903025865 
-0.0001494905055354305 
0.000180082666907355 
3.862221016864349e-05 
-5.015745932425868e-05 
0.0001204960886540958 
3.738298072894807e-05 
9.732103892996659e-05 
4.161120270528287e-05 
0.0001779842856714422 
-1.161170999810382e-05 
0.0001041544841720128 
-2.983564634683891e-05 
-0.0001379972311093098 
-7.213996679092467e-05 
8.986050874246036e-06 
-1.612230456189177e-05 
9.877952886693349e-05 
-0.0001064348550971349 
1.063056113298939e-06 
-0.0001625013147736283 
-8.046890611250324e-05 
0.0002830523915222259 
1.824036379747467e-05 
7.25004845771798e-05 
-3.844369657893395e-05 
4.961945523137942e-05 
-0.0002143992740455962 
-0.0001324862783883196 
2.450020640548978e-05 
9.765263166379724e-05 
-0.0002959768145181688 
-3.994340817966122e-05 
-0.000248870768253075 
-8.068734758495171e-05 
-0.0001380058822724869 
-0.0001398936834156184 
-0.0001528782526311033 
2.024746273557742e-05 
6.512736318188467e-05 
0.0001961527504085121 
2.90799730223002e-05 
7.771049539776576e-05 
0.0001082763376061282 
0.0001178206690757036 
6.092930212348344e-05 
4.371050807552126e-05 
-0.0001732667215981677 
8.432398894230471e-05 
-0.0001521151582011695 
2.700862077325729e-05 
8.089349250375841e-05 
0.0001142281620886341 
5.337342855942894e-05 
-3.230029452699041e-05 
-0.0001331298223104948 
3.229943196211924e-05 
0.0001830947744771083 
-0.000117479366268667 
-2.536282517187036e-05 
-0.0001869778950499656 
0.0001860199894102945 
-0.0001154233563559664 
0.0001204707052069305 
7.822946085303177e-05 
5.213611792950493e-05 
-7.035122162577595e-05 
-5.663043024069464e-06 
-5.978024592688642e-05 
-0.0001789706730346396 
3.719735390119997e-05 
-0.0001067294743923646 
-1.133748279370296e-05 
8.332167222730022e-05 
9.603875668336795e-05 
3.412110633620167e-05 
-8.766011888949915e-05 
5.775439621394755e-05 
3.99746928621103e-05 
-3.716017220010803e-05 
-0.0001435833751533713 
0.0001260860234853432 
3.039443997954086e-05 
9.7242356559387e-05 
0.0002757311793108134 
-1.155820175326945e-05 
0.0003744660010813396 
4.969785635795275e-05 
1.530687578447314e-05 
3.173908048551537e-05 
0.0002148608272229591 
-0.0002693210167976664 
0.0001408710206420655 
4.791532947613579e-05 
3.270840603921797e-05 
-1.017442261477109e-05 
-0.0001258071051053368 
-1.285358307063421e-05 
4.275787401950061e-05 
-0.0001503487539876367 
-0.0001552001008184554 
7.039070720869077e-06 
1.436245176058903e-05 
8.539116511184111e-05 
-0.0002288601894206531 
3.708189085034512e-05 
-7.274847529023706e-05 
-0.000133114091601855 
6.876923404366524e-05 
-0.0001907125037245832 
8.39590080354752e-05 
2.932011424931768e-05 
-0.0001664037565214941 
3.337895281315726e-05 
4.479210234335619e-05 
0.0001028638993900077 
-4.905968673809936e-05 
0.0002573772236698 
2.055811175331631e-05 
0.0001480078624369128 
0.0001190652952116879 
4.967470583950403e-05 
0.0001096933171853598 
1.875198000399062e-05 
-4.121931598060964e-05 
-6.144555503609104e-05 
-0.0003340052637518971 
7.600501807483273e-05 
4.007457118921853e-05 
-0.0001750244278701336 
9.816352910221976e-05 
-2.79841839634394e-05 
4.827135429397772e-05 
9.402013485816389e-05 
-3.869461368958502e-05 
-4.706928282136598e-05 
-0.0001581707058879429 
-4.012590462786719e-05 
-0.0001482078699611175 
-0.0002571617878407195 
-0.000144289293041216 
0.00017856377207922 
2.877444502236119e-05 
-7.329339322652968e-05 
-5.902386603440639e-05 
2.769988796385687e-05 
6.383575185246229e-05 
0.0001820744934574044 
-0.0002325066092628808 
-2.966651103483919e-05 
1.239891878806484e-05 
0.0001092309086162601 
-3.822489513429934e-05 
7.804280809602404e-05 
0.0001287096704235801 
0.0001009122809214287 
-4.254240194364802e-05 
9.592493222853624e-05 
0.0002662231348042112 
0.0001091791031400817 
5.310829495742491e-05 
7.187716235681474e-05 
-2.242919408830864e-05 
-0.0001435227180937746 
5.61414510395389e-06 
-3.50142392445097e-05 
-0.0001902288627253005 
-0.0001604427163663269 
-8.957046548858434e-05 
9.938477343328538e-05 
9.783102966525158e-05 
-0.0001659161896831206 
-3.05982971250176e-05 
-0.0002054882316562019 
-0.0001421361503300174 
6.392457822311424e-06 
-0.0001262367994416171 
-1.901500600477835e-05 
7.952320618472526e-05 
-7.153152682054697e-05 
-1.306550961214561e-05 
-2.554338573803862e-05 
6.57261618426081e-05 
-7.23228913303645e-05 
0.0001391599776176294 
0.0001344361225031859 
-9.081449206326039e-05 
0.0001815676218583103 
-1.583246596426937e-05 
-3.285664239762567e-05 
-6.689113541981319e-05 
0.0001069509562772431 
-9.944514516079942e-05 
9.229457699085076e-06 
-0.0002723615128471525 
-6.342431983452198e-05 
-0.0002623000703311118 
-0.0001039913288116448 
0.000100815324770452 
-0.0001093692824446637 
-0.00019399298952367 
-4.78755691929161e-06 
-4.942520657658874e-05 
-0.0001631040480929836 
-0.000199555315219156 
-8.502456677136045e-05 
-9.220370345644002e-05 
6.034856773574049e-05 
0.0001434576455708242 
6.165502369027396e-05 
1.809331534694254e-05 
-0.0001280994778656231 
-2.308681269272384e-05 
-9.034638246301587e-05 
-0.0002980744419969652 
-5.622983429925734e-05 
0.0002130923494024878 
4.261890762815574e-05 
7.203561962889412e-05 
5.580837835191942e-05 
-7.143524817100107e-05 
2.652622401633979e-05 
0.0002847097563167141 
-1.756442702180297e-05 
3.207068694279334e-05 
0.0002231070381834212 
0.0001278480145341627 
-6.900759424778664e-05 
0.0001585231984497217 
-0.0001082964029743633 
2.823467042498988e-05 
-0.0001199966794381287 
0.0001972237008848663 
2.024030480842245e-05 
-5.659410784698906e-05 
-0.0001881015551124012 
8.72707618686443e-05 
-5.598077103499603e-05 
-4.55133686510925e-05 
-8.560804871694019e-05 
-0.0001357491236445165 
-0.0002104088012475777 
3.737916896101701e-05 
0.0001008374917888828 
0.0001172380034191826 
1.237936213904784e-05 
1.208306381367387e-05 
3.148093763598916e-05 
-0.0001164349120808034 
-6.042990053081477e-05 
-0.0001348970062130103 
-0.0002485823776982957 
-2.426806778021947e-05 
9.005835177071689e-06 
-8.698635636312337e-06 
6.477701120465933e-05 
0.0002246245743020579 
9.790145736164152e-05 
0.0001127012533531756 
3.997754568063071e-05 
0.0001530007754241626 
-6.813596193204995e-05 
-0.0001307595056414405 
0.0001911029720879764 
1.340783511259216e-05 
3.222103101740024e-06 
9.961523102808588e-05 
-7.497003154438292e-05 
7.655626114770726e-05 
-4.00534891464962e-05 
-0.0001523186168513878 
0.0001501433691549775 
-8.256331799727763e-05 
7.402782084826549e-05 
-4.816482513957656e-05 
3.205227985792465e-05 
7.129725875743692e-05 
-6.398549233225228e-05 
-0.0003343958138051256 
2.722010897694021e-05 
0.000118599816807253 
-6.938999285737848e-05 
-8.469648672467288e-05 
-9.079384335691909e-05 
-3.865169707109717e-05 
-1.830277065626236e-06 
0.0001524204721573755 
5.739084954569833e-06 
-5.071132768998506e-05 
-0.0001179311284640246 
0.0001739299376815476 
3.13968848208428e-05 
0.0001275846391643318 
0.0001678737966004474 
-0.0003145706876556495 
-8.855320486184419e-05 
9.672709182942712e-05 
5.399712091691308e-05 
-0.0002249640793828545 
5.365997118750803e-05 
-0.0002594115714725521 
-0.0001869558444552238 
0.0001247334784879753 
4.532798936041179e-05 
-2.40457277625428e-05 
9.131926882161446e-05 
1.060102788279883e-06 
0.00011907678674474 
-7.441646141426075e-05 
0.0001166534735636207 
-0.0001851643537286459 
-0.0002494568985795036 
-0.0001330377734046428 
0.0001533104859240501 
0.0001596349669029458 
5.084053920345652e-05 
0.0002143090962186698 
0.0001691416486042547 
-0.0001877956765067396 
-9.357485570892159e-05 
-1.053800342002679e-05 
-0.0001106114274792984 
-0.0001194532132395587 
-5.051129417808573e-05 
-6.616624293824591e-05 
9.938194024241019e-05 
-3.570718173854124e-05 
-7.572603335548306e-05 
-4.438148210543334e-05 
0.0001188367725103916 
-5.777437887816004e-05 
8.584626891236585e-05 
-0.0002207581292935555 
-8.742369768276577e-05 
-0.0001594914620570293 
-0.0001208088801791016 
8.48903606128593e-06 
-0.0001222505690846862 
1.481593740587737e-05 
-0.0001734467804740247 
0.0001023115263957198 
0.0003062922985964383 
3.009098196133073e-05 
4.610359570349572e-06 
0.0001420351774807893 
5.495900751210398e-05 
-7.812400686056478e-05 
-1.355280819690197e-05 
-1.325758627365535e-05 
0.0001407059802455604 
-9.809806687328972e-05 
0.000239247695637165 
0.0001822157474212099 
7.740742861743439e-05 
-0.0002423805316590732 
-5.114671483225878e-05 
-0.0001959411064937787 
-2.727903067812546e-05 
0.0002403552869614339 
-9.584421304589788e-05 
5.743313560347859e-05 
0.0001328904918847737 
-0.0001030012074034599 
9.900500516470011e-06 
2.287296399879259e-05 
-7.229013405275967e-05 
-2.258774442812363e-05 
-4.315200739097951e-05 
-0.000145086280826833 
8.258712698386335e-05 
-2.687014035900841e-06 
-1.698620080501077e-05 
-7.589896383880346e-06 
-5.125317861443982e-06 
-2.055328727136288e-06 
0.0001468879112147542 
4.213982974598929e-05 
-5.398697205635242e-05 
0.0001462885953503387 
6.010703079289762e-06 
-3.761981294323023e-06 
-2.368996836370627e-05 
-2.310244856183144e-05 
6.644940222297116e-05 
-2.780618691889342e-06 
6.675798218940075e-05 
5.532868191542405e-05 
-0.0002645819872215655 
8.589187000424644e-05 
0.0001875839352468095 
-2.648120116545004e-05 
0.0001391205772908536 
0.000100793510480077 
7.575056515883725e-05 
-0.0002099999100613866 
5.279021124546683e-06 
-0.0001735670006432095 
-8.651128197766646e-05 
4.80009447600169e-06 
-2.164808722610565e-05 
-0.0001975666860288391 
5.60385774192661e-05 
-4.149544677311411e-05 
0.0001747266141983605 
3.930290730060085e-05 
-9.800153317857082e-05 
0.0002678317551726501 
0.000234832065966665 
0.0001688205055506696 
0.0001630987168427474 
0.0001523127067729259 
-7.589174111481313e-06 
4.993714974625268e-05 
-0.000174861514362713 
-8.892639445120645e-05 
0.0002544834330812045 
7.100160749404878e-05 
-9.839206526550066e-05 
-6.958596358640166e-05 
-9.048046052723128e-06 
0.0002439260583590477 
7.208411601629569e-05 
-3.155122176353253e-05 
0.0001362184423914608 
5.219089523647606e-05 
0.0001110735013904575 
-0.0001195134594157982 
-9.534815149078842e-05 
8.809095678288059e-05 
4.456993058053198e-05 
-1.911657200533153e-05 
1.684171939154269e-05 
6.524072418895981e-05 
-0.000222735726590192 
2.680417902566571e-05 
-1.188301858023602e-05 
-0.0001104461457103911 
-0.0001762969749250002 
-0.0001330527623254262 
7.273515016240425e-05 
4.035305457869723e-05 
-3.403297337043769e-05 
-0.0001507258880177542 
-2.976866769061605e-05 
0.0002791850186032384 
9.105248579871578e-06 
9.977833889008686e-05 
6.228743968584651e-05 
-8.457479812382738e-06 
8.169693134984401e-05 
-0.0001172278773523202 
-2.063293707967732e-05 
5.738703158571855e-05 
0.0001200902510312731 
0.0001409394162853794 
-0.0001626908093415477 
0.0001432113326934085 
7.756124789456563e-05 
5.791698050128911e-05 
0.0001524608669042112 
-2.704652402514119e-05 
0.0001045730241299345 
0.0001472416327330119 
-1.584702076140491e-05 
9.198676428180052e-05 
3.708466388432174e-05 
4.917867594670225e-05 
0.0002892579103778871 
5.596799693943135e-05 
-0.0002290753516768785 
-0.0001616788063190032 
-0.0001532949149945015 
-4.816738468387413e-05 
-7.303370325183509e-05 
1.352096514021868e-05 
0.0001267160642042454 
0.0001470053820053536 
2.333780173700651e-05 
-0.000262335155817446 
8.03407804016317e-05 
-6.80502003076364e-05 
0.0001271153567265257 
0.0001143957165771166 
-9.225503742549377e-05 
-1.151388848290385e-05 
-4.032447136656953e-05 
-0.0001157008366258714 
3.87410217363519e-05 
4.767591096841172e-06 
0.0001532893948660057 
-6.608001986688005e-05 
0.0001133944705336594 
0.0001114668617168782 
4.225102496571516e-05 
3.699269101546181e-05 
0.0002320353597073057 
-7.874333191441489e-05 
-1.577147181250092e-06 
-0.0002173422943506625 
4.497499815073648e-05 
0.0001133413549447684 
-8.977332395603401e-06 
-8.387244943969023e-05 
7.748423558642048e-05 
-0.0001058994297346509 
-0.0001362840291748193 
0.0001519470163114898 
-4.195384584443422e-05 
3.564346628126348e-05 
-0.0001481722005088709 
-0.0001077587504161919 
0.0001780505497840476 
-4.631106537203919e-05 
0.0001768951670044974 
-7.911374126839816e-05 
0.0001371304270127578 
8.592407923619105e-05 
0.0002243398214694708 
-6.886523072361763e-05 
0.0001940935266545422 
1.065669838708691e-07 
-0.0002455400409678197 
0.0001116886832477807 
-7.555084962050635e-05 
3.870465539885505e-05 
0.0002592287724947222 
7.681683393453677e-05 
-4.920364506176941e-05 
4.765547838464691e-07 
0.000116554604636789 
0.0002394774965791993 
1.595917339215428e-05 
0.0001097474062221217 
0.0001680551441477544 
6.76488015483277e-05 
1.297040206653088e-05 
8.346050529361248e-05 
-6.441264159628927e-05 
-0.0001175648523892347 
-5.709331296559697e-05 
0.0001338932157315174 
-0.0002860321638623568 
-0.0002252627787260283 
-2.778946431653819e-05 
1.567189515720461e-05 
9.814390286158331e-05 
-0.0002432867181315203 
-4.330800176421532e-05 
0.0001232851621695766 
-3.140933255382676e-05 
4.154324271709342e-05 
6.593651177044368e-05 
-0.0002346609802556113 
0.0001364068669921232 
7.96575720308044e-05 
9.387197909417709e-05 
-4.800315349755207e-06 
5.724909933710137e-05 
5.330702600850639e-05 
0.0001253014823321418 
0.0001325998909485961 
-3.731168457164175e-05 
8.736531219943119e-06 
-0.0001042354834438908 
0.0002141760914485764 
-0.0001598879062302285 
0.0001636159425371691 
2.906348298047061e-05 
-0.0001182224068630816 
2.153460699054701e-05 
0.0002340990929470841 
1.069428019400973e-05 
-3.336076432520514e-05 
-0.0001796559496885458 
0.0001078154306080889 
-0.0001027963752041264 
0.0001259368742741403 
1.74431611420581e-05 
2.878064443439877e-05 
0.0002245029076961636 
0.0001176998455178892 
1.690360327035949e-05 
-0.0002227172423554004 
0.000220113395367863 
0.0002803175590755014 
4.514250124588511e-05 
-2.723849866131952e-05 
4.932124398581909e-05 
-1.234013930339486e-05 
0.0002257980135106777 
-0.0001463212580136405 
-3.960840197899056e-05 
-1.264368247195473e-06 
-0.0001426290466666959 
-0.0003147266845511221 
-0.0001286606300236241 
-7.696701600214013e-05 
-0.0001642837339072156 
-0.0001636393153694066 
-0.0002468053435049385 
-7.401530695661242e-05 
7.826557292216443e-05 
0.0001718773699095 
-0.0001557720567129891 
-0.0001578980863835382 
3.00881744054336e-05 
-2.920189908673446e-05 
-0.0001577104235619737 
-2.19015415323411e-05 
7.169942180296305e-05 
-8.203419721847614e-05 
0.0001730978505664548 
-0.0002646957515332049 
0.0001804524522987281 
-2.426274176959697e-05 
3.151701264000799e-05 
-8.559245247805522e-05 
-1.12209724671512e-05 
-7.348469369669338e-05 
-0.0001591858523800556 
2.220375980796757e-05 
0.0002097415073469936 
-3.826501067335941e-05 
3.968305273679814e-05 
-0.0001028385200027464 
0.0002521288134548128 
3.189424462776789e-05 
6.874761023404159e-05 
-5.526124195928739e-05 
9.131665886624014e-05 
-4.069096929897233e-06 
2.804681057194951e-05 
-8.48930737493998e-05 
0.0001202209487639189 
-8.800342358978943e-05 
-0.0001011044895126508 
0.0001949707803139695 
-1.713385864605377e-06 
1.095797097516463e-05 
-0.0002282678672950705 
-2.171001535500547e-05 
-0.0002762811733241574 
4.374352308940825e-05 
-3.486683096723026e-06 
-3.994020613804356e-05 
7.923176509403972e-05 
-9.898200525891198e-05 
-6.407875629547505e-05 
-0.0001605831788103948 
-0.0001673056824534466 
-4.105617184571752e-05 
1.856146792082398e-05 
-0.0001870898138880382 
-1.437015340540101e-05 
0.0001378625972914274 
0.0001892918713942796 
6.673872522025647e-05 
-3.021207133681846e-05 
9.904173558646711e-05 
-0.0001578598358494966 
-8.218717636558948e-06 
6.212214235770857e-05 
8.737154947724566e-05 
6.324166410162196e-05 
-0.0001437709353358503 
-6.475890170661455e-05 
-0.0001627055325841576 
9.002972393813645e-05 
0.0002038607863685462 
-3.959726329870958e-05 
2.917059929686808e-06 
-0.000225732628372716 
-0.0002663654379732789 
0.0001437914013876189 
-0.0003024340648950554 
7.629493261272833e-06 
-0.0001063097064866321 
-0.0001578158977816275 
-0.000328982525379752 
0.0001288524753542934 
-7.639144150751568e-05 
-6.792215930020156e-05 
-0.0004083983922066234 
-3.919350533588822e-05 
0.0003324276758850836 
5.241696459902983e-05 
9.472952749959191e-05 
-0.0002758890036367637 
0.0001715704875891541 
7.156970670210557e-05 
-0.0002930018367771902 
9.830835044963099e-06 
-0.0001831785672132758 
0.0001885728693629803 
-0.0001309852231999086 
0.0001287226823850402 
-5.442031147873132e-06 
-0.0001119508008041361 
-3.022092332082458e-06 
-2.322080795812826e-05 
4.592638215686828e-05 
6.544997939241628e-05 
0.0004348008482926835 
7.278458137797026e-05 
1.306902410630354e-05 
-4.487549714414147e-05 
6.599646069188261e-05 
3.94093619478281e-05 
-0.000161311413943635 
-3.262988210247811e-05 
-0.0001326470048461982 
-6.959348731309177e-05 
-1.030503436608959e-05 
8.543102654225552e-05 
0.0002109581298432399 
-0.0001952219609311094 
-3.39821134237814e-05 
-0.0002906232451237375 
0.0001330830086046702 
-2.826590790496924e-05 
2.673625869967243e-05 
-2.719303483879169e-05 
-0.0001836604388920049 
0.0002094523962134514 
0.0001657871596559007 
0.000222085235414804 
0.0001213948860926255 
0.0002066157057259916 
6.792607360312242e-05 
-1.919564770612267e-05 
5.042480903361633e-05 
-0.0001480314752943445 
-0.000187382183312758 
-4.573507723802822e-05 
0.0001552324027855964 
0.0002673501429512809 
7.583690985399017e-06 
-0.0002370071746761134 
0.0001086134890693298 
2.908731482667028e-07 
-3.805894424711403e-05 
0.0002288350072414266 
-0.0001857515856732447 
7.29773922251381e-05 
0.0001157831870971119 
0.0001730989012980953 
0.0001253029282252086 
-8.784722496149185e-05 
-1.280787675329888e-05 
0.0001016857330208747 
-0.0001001607681224034 
0.0002293316707740714 
5.324535136016547e-05 
3.482227690051328e-06 
-1.913186565957236e-05 
5.0350820811279e-05 
-6.532574691059784e-05 
-7.817374721809508e-05 
-0.000128064232481982 
-5.115894761946228e-05 
6.686547796934987e-05 
6.333443132721472e-05 
-6.373176426081414e-05 
-5.169798733169609e-05 
-4.572053122494086e-05 
-8.585807247856971e-05 
-3.321313038257503e-05 
5.470610091101807e-05 
-0.0002100734342227706 
-8.766902388425416e-06 
-2.380291239361929e-05 
-5.56781854913408e-05 
-9.945216001139508e-06 
5.949811186777416e-05 
-0.0001199962936827758 
-4.28152005955581e-06 
1.769370906469777e-05 
4.04073164722927e-05 
-0.000159044357368486 
0.0003055522965333352 
7.290862268473063e-05 
-8.640934580173319e-05 
7.604291855481514e-05 
-0.0002086031594941629 
9.655111509952153e-05 
-3.554806653557327e-05 
-5.653746516337895e-05 
-1.431045800067329e-05 
0.000223411588084291 
-9.737006502984906e-05 
-9.712755061594893e-05 
-0.0001994714948892669 
6.045762154242065e-05 
0.0001348481503308598 
1.475733665097619e-06 
0.0001699001222589709 
-0.00023715863473763 
1.924918845250524e-05 
2.051441166852363e-05 
-9.920160447737397e-05 
-2.602410342133316e-05 
0.0001397953635026669 
4.130016765117028e-05 
-0.0001703148417618872 
-1.82942341196625e-05 
0.0001503618553335926 
-0.0001612444244373964 
-4.117354635209657e-05 
9.034070824560929e-05 
0.0002287971131387054 
-1.51847545643262e-05 
-0.0001402829347733856 
-4.351845285673911e-07 
-8.462936601744464e-05 
1.509981072377794e-05 
-8.094478574422861e-05 
4.692016553156874e-05 
-2.81446871545148e-05 
-0.0001288151576165494 
-0.0001302238980456483 
3.302407323631739e-05 
5.048182013600535e-05 
0.0001597088359352445 
0.0002190092719404603 
-0.0002737927301684914 
-7.195885683339191e-05 
9.550625030888365e-05 
-0.0001010683847304239 
0.000207968977716681 
3.611003577835621e-05 
0.0001115990884321242 
9.623288418378041e-05 
2.987503924608263e-05 
0.0001636465424680261 
-8.422585261278325e-05 
0.0001157492637094302 
-1.990454341586586e-05 
0.00028617057192003 
-4.93001939453297e-05 
2.009375293326132e-05 
0.0001085226692029007 
0.0002342740522959232 
-0.0002088767943947658 
-2.630127850004173e-05 
-1.843230416827038e-05 
-0.0001886091549866099 
5.309702114847587e-05 
0.0001751873636353169 
2.127799032597852e-05 
8.315092300197785e-06 
0.0002079286051632921 
-0.0001813392921049428 
-0.0003439591330815755 
0.000176537084082614 
0.0001806238514760664 
2.993531123227335e-06 
-9.691585284565319e-05 
-7.139114975057204e-05 
0.0001339839214564336 
0.000103279316627776 
8.520425023691773e-06 
0.0001110361793136696 
0.0001204305899371956 
3.803454358994915e-05 
-0.0002339317598417644 
-3.199129704728071e-05 
-0.0002376036759853776 
4.474441713128607e-05 
-0.0001348089457786851 
-1.858000041092508e-05 
0.0001221217065849618 
-0.0001125802811291932 
-4.928837513837506e-05 
9.986475333656554e-05 
-5.441485201437705e-06 
0.0001521649947956458 
-5.422792299643419e-05 
3.979349816738971e-05 
-0.0001266117706766646 
0.0001937973580908519 
-0.0001603376988816873 
-0.0002703130074162404 
-2.117596818255312e-05 
0.0001796234547357052 
0.0001666374349402355 
-0.000116334392931991 
-3.063874715523662e-07 
-0.0001031989846363958 
5.262096851616945e-05 
4.65637170342084e-05 
0.0001209766352839445 
-0.000120891922122151 
9.315520768799141e-05 
-5.353298738606471e-05 
6.395389415004031e-05 
-0.0002925676630000557 
-0.0001549176491000187 
-9.417444230642168e-05 
3.893446759337509e-05 
-1.470525916031833e-05 
1.403879853087174e-05 
-0.0001061035547048883 
3.207160565502079e-05 
-6.233411066503886e-05 
0.0001549299120987358 
5.792105430727455e-05 
7.58261890399549e-05 
-0.0001099673221586893 
0.0001847193544088156 
-0.0001407308903568855 
-8.069222293929808e-05 
2.443219510586818e-05 
-0.0001580793274168847 
-0.0001377799254799513 
-0.000259983366357509 
2.496695115562052e-05 
-0.000114391356730391 
-5.009463203309855e-05 
2.343625125452611e-05 
-3.03878111523716e-05 
1.827013564191981e-06 
1.101581680027804e-05 
9.162182370379253e-05 
-0.0001351505008131516 
3.108507255093009e-05 
-8.090469111833625e-05 
3.976222249659636e-05 
2.047230811755877e-05 
-7.970561941928603e-06 
-0.0001656581906823454 
-0.0002563927075226975 
2.924817277964504e-05 
-1.513978382104361e-05 
-0.0001001170427026919 
0.0001639752027651424 
-8.822313720258679e-05 
-5.83552020523527e-05 
8.582925412098972e-05 
1.408506218989631e-06 
7.598617303745142e-05 
-6.044773944029255e-05 
0.0002637069950252911 
-1.763437330765347e-05 
-3.435683664603428e-05 
6.277910189855454e-05 
0.0001971328658353401 
7.190309165688775e-05 
0.0001662362590760386 
0.0001527029475082122 
-9.778409556328456e-05 
-9.173539936223346e-05 
0.0001005629587827198 
-0.0001265361711327133 
-4.479269024937845e-05 
-3.503566064860775e-05 
-4.803483278727579e-05 
0.0001276237348836335 
3.13106444709907e-05 
-3.136439090224744e-06 
-0.0001792268490709432 
-5.383047543615408e-05 
-3.942449881433438e-05 
-0.0001903554331084419 
4.812109797165489e-05 
0.0002183354235149837 
-7.123282163401961e-05 
-0.0001054295239406433 
3.855454759042659e-05 
-3.498381979020909e-05 
-6.897146009635525e-06 
-0.0003213731443732388 
1.088894039887261e-05 
0.0002286398039872848 
8.43306806695626e-05 
0.0001930112064304845 
-0.0001575367808176088 
-9.373192198870488e-06 
-8.121798930859382e-06 
2.382213330258506e-05 
-0.0002094044071815967 
2.656029253999574e-05 
-2.332007471775568e-05 
-5.464711842917781e-05 
8.648388888005582e-05 
1.799373515383384e-05 
0.0001330799897157593 
0.0001030938692976322 
3.463174037281302e-05 
0.0002624080199309872 
5.559230488383819e-05 
-5.273222481097396e-05 
-0.0001809707076126831 
6.478191273277304e-05 
4.267869733760307e-06 
4.796563542526918e-05 
-3.432637688870098e-05 
-0.0001896421368615787 
7.149248666645332e-05 
-0.0002352261148192879 
7.993569463222419e-05 
0.0001517974579304666 
-0.0001400692325015528 
0.0001561478871004347 
-3.468724639004309e-05 
3.919447532127343e-06 
6.23228108938384e-05 
-0.0001432269326147583 
5.179743060327969e-05 
-2.337478247520488e-05 
0.0002174393782298565 
-1.996996675515924e-05 
-6.50444928272524e-07 
-9.082860335368942e-05 
4.698112433782558e-05 
-0.0002217552762076093 
-0.000135660213968043 
0.0001507326217019608 
0.0001770068136780997 
-1.343792659281096e-05 
7.857901192036928e-05 
-0.000181611844905815 
-3.30616972778774e-05 
7.744690631928232e-05 
9.449296711917205e-05 
4.386074917580295e-05 
6.698088952347833e-05 
3.692655970594822e-05 
0.0001304017317623856 
6.381303392765469e-05 
-0.0001382230285317279 
-0.0002277911136237882 
8.475820898054999e-05 
-7.505268373129731e-05 
0.0001175496217267376 
0.0001314753027697562 
5.570087756000315e-05 
-8.942029915093244e-05 
-5.043049786795156e-05 
-9.762202590614174e-05 
5.403549065195918e-05 
-3.703254943746308e-05 
-0.0003104874128928821 
4.922124280502594e-05 
3.687571616455984e-05 
1.004784580570009e-05 
0.00016017531909602 
0.0002214616367887304 
5.929108557947591e-05 
0.0001174784195635773 
6.902219957033877e-05 
-0.0001288885126737223 
-0.0002150175305603302 
-5.512082465732108e-05 
-7.968645145701345e-05 
-3.346743978378272e-05 
0.0001906063597778872 
4.904840894536098e-06 
-0.0001582439221763365 
-8.485972638465342e-05 
0.0001925736543429196 
-0.0001792143735691381 
-3.291172213861509e-05 
1.965726790049883e-05 
0.0001587920170374961 
9.886632781210764e-05 
6.742222788743256e-05 
-5.362453398425604e-05 
2.220071568192167e-05 
8.148728056573184e-05 
-0.0001916790562995131 
0.0001461873045591019 
-9.041721499347189e-06 
-0.0001308387076311739 
1.384661441900597e-05 
0.0001603304482240376 
-0.0003552133261995465 
-0.0001152332350741834 
-6.317007821011404e-05 
0.0001341055480274088 
-1.841815617924395e-05 
3.761133920110665e-05 
-3.169070214674028e-05 
0.0002036876259486368 
0.0001087722243322256 
-5.350098041114193e-06 
0.0002584097637985196 
5.453008514216818e-06 
0.0001174546340613926 
7.286475416197797e-05 
5.099306162371247e-05 
2.874379494680924e-05 
2.976969518238376e-05 
2.665831055914366e-05 
-1.480170232777967e-05 
-2.676812472212229e-05 
0.0001685339512325261 
4.565919067644485e-06 
2.001603888570407e-05 
9.310087589340451e-06 
0.0001198761383251966 
1.847268545894984e-06 
-0.0001577727968251723 
-0.0001903211602716011 
2.96359238016678e-05 
-0.0001573471876013097 
1.409982345249282e-05 
-0.0002452866910843161 
-0.0001817735481083479 
-6.26665966609805e-05 
-1.5654295295611e-05 
4.727397231498795e-05 
0.0001806524144887688 
-7.806076917457094e-05 
4.339732815664183e-05 
0.0001127992688633759 
5.411563289278987e-05 
0.0003027666067510613 
4.624812667550634e-05 
-5.759406370337829e-05 
-9.605778893092437e-05 
0.0001881950816564045 
0.000159392509888124 
1.084076206776772e-05 
0.0001462267679092374 
-6.163895984515568e-05 
-7.086006181230095e-05 
0.0002003545706886674 
-0.0001123047858998446 
-5.191699906882267e-06 
0.0001857680941391522 
0.0002501120291945603 
-0.0001504837887549904 
0.0001852698384859033 
0.0001560049884953691 
-0.0001488886740815632 
6.455269753376634e-05 
1.147845474560825e-06 
-4.776709644991548e-05 
-1.744778155585579e-05 
-3.823208235585144e-05 
0.0002426884131919174 
-2.114295473712272e-05 
-0.0001074928192801528 
0.0001228942204403171 
0.0002095423605088766 
0.0001700724298303844 
8.910059529250034e-05 
8.748195019900504e-06 
9.8595540381826e-05 
7.372700557176512e-05 
-0.0001586612197016619 
3.483668984095614e-05 
-8.063472157268318e-06 
1.618608696271549e-05 
-0.0003651838565355915 
0.0003175808146051907 
0.0001286509834173832 
4.635838174150366e-05 
0.0002594968764792492 
5.736892517386819e-05 
1.438327123999349e-05 
6.693493935649669e-05 
0.000195891065921461 
-0.0001220638972260459 
-1.276796258718928e-05 
-4.908964943672654e-05 
-0.0001159672567616798 
1.103977450251103e-05 
5.629338938366301e-05 
-0.0001676973986453692 
9.674847004482521e-05 
-0.0001241387224805165 
-4.302250651759585e-05 
4.848446923359886e-05 
7.411620736810223e-05 
-3.757859547371638e-05 
-7.685075282946227e-06 
-0.0001002470875135345 
0.0001053038553967945 
-0.0001168833065464946 
-0.0002724667639660581 
3.639880818371772e-05 
5.889797110011939e-06 
8.419104224531341e-06 
9.862782561014099e-05 
5.495443971137336e-05 
-0.0001331945412560823 
-8.108917849432606e-05 
-8.320398155201763e-05 
-7.323335177116226e-05 
-2.904550513956779e-05 
6.205032572239479e-05 
0.0001307367420058424 
-2.05039483322383e-05 
-9.594680792249497e-05 
-0.0001051255511325334 
2.819680328496332e-05 
0.0001500218438928466 
0.0001829267424961586 
-0.0001471353763393737 
0.0001580590360877324 
9.940984732961557e-05 
6.598358928834503e-05 
-0.0001128552903339235 
0.0001298503224443361 
-8.937202490074489e-05 
7.671804160613171e-05 
-0.0001295121018346806 
-1.755715009209171e-05 
0.0001632994271820181 
6.820784778384449e-05 
6.997844494539357e-05 
2.880020041530541e-05 
-9.33215567778804e-05 
0.0001578852632007538 
5.88165876628538e-05 
4.619942383048606e-05 
-0.0001510145692565115 
7.673759914390969e-05 
-0.0003952697795574667 
1.139419447141962e-05 
6.495636466867696e-05 
0.000116354480128026 
-0.0002055848786941205 
0.0001733894453542856 
0.000162815365167555 
0.0001119707735366252 
0.0001038708038537923 
-0.000128419481199208 
7.96616921505509e-05 
4.47304097713269e-05 
-2.882070129157416e-05 
7.45457984216387e-05 
-6.561467807596671e-05 
-0.0001008084099379047 
0.0001814653656872577 
0.0001573490331790828 
0.0001488380609264107 
0.0001063525017012027 
-0.000175904580279774 
0.0001097410759019835 
9.069481012825185e-05 
-0.000321927780774887 
-7.277240294911264e-05 
0.0001159228025948627 
-0.0001299564870377166 
-0.0002239868312173998 
-6.570465813136581e-06 
-0.0001538001231561478 
0.000114931451939578 
6.041616043189938e-05 
0.0002003681884238539 
-4.125630174321138e-05 
-2.456503125226338e-05 
5.498416092859933e-05 
-2.633563555135956e-05 
0.000190350682340714 
5.801789796167968e-05 
-4.669599105088364e-05 
-3.819085664089292e-05 
-0.0002844863151629258 
-0.0002695341621288976 
6.705061261284582e-05 
-0.0001337000029232435 
0.0001017326472655522 
-7.036071580689081e-05 
2.865819893519697e-05 
0.0001647709615487367 
0.0002110736252904585 
0.000163321160444863 
6.45519648127716e-05 
6.783524520722038e-05 
-0.0002023370278838972 
-0.0001619536664052996 
0.0001323563939998619 
-0.000255941187820355 
0.0001233731922582461 
-1.077568967805263e-05 
0.000164211348007744 
2.881384145820269e-05 
-2.262712110098736e-05 
3.857805231652704e-06 
0.0001500116152321466 
0.0001333328356212151 
1.353417334409942e-05 
-4.992728922975024e-05 
9.067860301843539e-05 
7.299809510745352e-05 
-0.0001804560347040819 
5.435838388260348e-05 
-2.899437735767749e-05 
0.0001855838775654719 
-0.0001023620767576628 
0.000172954706272262 
-8.690534553596596e-05 
2.409610982772509e-05 
-0.0002201596064104602 
8.004110635148045e-05 
0.0001071892964501729 
3.922419220423369e-05 
0.0001962362275355569 
6.459903668971318e-05 
3.067810026103682e-05 
0.0001327044518678356 
5.712370112893305e-05 
-5.335678452173368e-05 
6.17534216997242e-05 
0.0001396022918476135 
4.767929140493454e-05 
-5.428684521251006e-05 
0.0001554476614145433 
9.352119702886954e-06 
2.633189196866992e-05 
-3.841342630105697e-05 
0.0002650066422071836 
-0.0002258957398061788 
-9.538137102059625e-05 
0.0002335451056079223 
8.829924352648471e-05 
-0.0001576015249488465 
0.0001777067595505869 
-2.219651768340185e-05 
-6.681037759053275e-05 
-8.740215465157441e-05 
4.807341718050169e-07 
0.0001981582736650545 
-0.0001084621403595871 
-7.980770840274256e-05 
0.0001206021293819261 
-2.191846328626563e-05 
0.0001009733784324938 
-0.0001167076572579714 
-6.421988159665484e-05 
0.0001312678038601687 
-0.0001313070409715607 
-3.467658370177888e-05 
-0.0002965668450424146 
0.0001094720942124749 
1.929048523033877e-10 
7.579824805733193e-05 
0.000246196639255598 
-0.0001474348636110958 
4.502771725884869e-05 
-9.920945040514656e-05 
0.0001320442963820505 
1.144378062124676e-05 
-0.0001264960049260302 
9.042380086704847e-05 
-0.0002224838721470056 
-0.00025436569516021 
4.196398685918985e-05 
-0.0001567165870834005 
1.60146454575308e-05 
0.0002117694854628818 
-0.0001320237677542335 
0.0002028151643853867 
-0.0001930323714994305 
-0.0001910320416467929 
5.119136906188888e-05 
-1.309879275731624e-05 
1.236628822795046e-06 
-1.95630112236362e-05 
-5.431118957139498e-05 
8.641392968271504e-06 
-4.829724563914275e-05 
-2.242380243018895e-05 
-9.035830390924908e-05 
-0.0001098318611941968 
-0.0002392416949774179 
-0.0001744957308946793 
0.0001392499046730588 
-8.376623355611737e-05 
0.0001377012786345167 
4.4318328875165e-06 
0.0001773275284986857 
-9.956466059835244e-05 
5.251039879169144e-05 
0.0001880062312242418 
-0.000173611783376286 
0.0001907486903571953 
6.913015240217233e-05 
0.000145422739511616 
-2.839895924261652e-06 
7.756932191802845e-05 
2.462822953049365e-05 
0.0001098766454629206 
-0.0002004376979498402 
9.679532799855252e-05 
8.237913265556158e-05 
-5.648608593200174e-05 
-0.0001519910164082189 
2.245744686052684e-05 
-2.665662073981991e-05 
-0.0002110082482298692 
-5.816286396512934e-05 
-3.572272873435345e-05 
5.777050642366879e-05 
-3.107102053812601e-05 
-9.990878338610734e-06 
-7.111725043339284e-05 
-0.0002553954153937903 
2.434757451496139e-05 
0.0001458967431616871 
-0.0001379041414504115 
0.0002853860772264987 
-0.0001042525813212217 
0.0001006120462364533 
0.0001664395476391614 
-0.0002638746574378887 
1.417418940061276e-05 
8.425343836858036e-05 
1.397186566618251e-05 
-0.0001782934279788065 
6.056387166609644e-05 
0.0001746032035092785 
-0.0001042890397883656 
0.0001460562563734541 
3.967283864438424e-05 
-8.932896115717019e-05 
-7.541256534833392e-05 
-0.0001463258468509196 
8.108360365016777e-05 
-3.478839599921606e-05 
9.538680072213306e-05 
3.380252807898334e-05 
4.530963347303783e-05 
-1.487640260635925e-05 
-0.000169688041586501 
-6.941530612195959e-05 
-2.265497650392466e-05 
9.46613814581765e-06 
0.0001926353453640319 
-7.068605163472961e-05 
3.334318394280138e-05 
-4.272626628524776e-05 
8.161539335826675e-05 
1.3841890110458e-05 
3.491490441505424e-05 
-0.0002643299228270978 
0.0001615097457187495 
-5.800133164433235e-06 
7.739511362901476e-06 
2.722725550841898e-05 
-9.990005101364259e-05 
-5.269389880968786e-05 
4.604318911054469e-05 
0.000126430087096124 
0.0001475188665378075 
-1.489525410348095e-05 
6.830682548216837e-05 
-0.0001883111625094688 
4.030419969030884e-06 
-8.874491030899724e-05 
-1.386688386644064e-05 
-5.104122843127507e-05 
-1.353070455078273e-05 
-1.265820018659214e-05 
5.422793391089149e-05 
5.975082470107764e-05 
0.0001161995198877565 
0.0001348937535290495 
0.000174546859776193 
-3.167318487283897e-05 
-0.0001928638485038133 
-4.83147313409215e-05 
6.405125942446033e-05 
-8.071489717197369e-05 
0.0001305747345522873 
-5.834291580645111e-05 
-0.0001973819873966714 
7.904482923471182e-05 
0.0002138842902501453 
-3.831307943838646e-05 
9.88374557694276e-05 
6.071525009504789e-05 
-0.0003828357072484904 
-0.0001197545070052941 
-8.340804289047058e-05 
-7.572828795121011e-05 
0.0002866119250757193 
-2.517144324744008e-05 
-0.0002494223486045796 
0.0001933418864906813 
-0.0002734156610157614 
0.0001048864053662994 
6.919790867445093e-05 
0.0001589835557697319 
-0.0001043654228021058 
0.0001029050656928516 
-0.0003486673112721305 
-0.000202876748302903 
-3.290545520396615e-05 
0.0001830587506594384 
0.0001697374468921956 
9.585624733912292e-05 
-0.0002931946169080525 
-0.0002429591649868484 
0.0001844701626321225 
4.199959570359779e-05 
0.0002232361968499765 
0.0001685346458400491 
-4.693770872714349e-06 
-0.0001936091269329462 
-3.689789115570816e-05 
0.0001599710021944325 
-0.0001645977914522357 
0.000261720862276948 
-0.0001159614703357939 
3.751620995404728e-05 
0.000198245575285782 
-2.005830629669625e-05 
4.411022750392197e-05 
-5.134818351183596e-05 
-0.0002072979150954781 
1.594743157849623e-05 
7.972279760127721e-05 
0.0001771711731715004 
0.000351647937941608 
-5.70164356175998e-05 
-0.0001417802684845055 
3.009284609392914e-05 
-0.0001590379555267614 
-0.000165081632120425 
0.0001021726821402365 
9.018438760241822e-05 
7.709813688862707e-05 
-5.761874103280499e-05 
-0.0001340458381503095 
-0.0002629849830136791 
4.946568381031209e-05 
-0.0001161500120681174 
-0.0001335099684540988 
-4.265984487330734e-05 
0.0001831908024205969 
0.0001148959316671423 
7.4225967199227e-05 
1.581338826844652e-05 
0.0001411226079763592 
0.0002523918246342316 
6.341999444537964e-05 
8.174777926803443e-06 
-4.064822961534033e-05 
-0.0002047794921523322 
-1.421073737508333e-05 
7.40076753893177e-05 
1.834252855202595e-05 
5.874134580863884e-05 
-4.466888227200396e-06 
0.000189264136344202 
-0.0001827981187268501 
-0.0001400878562335547 
-0.0001154416332945553 
-2.39622106054843e-05 
4.530143465268019e-05 
8.537171822371632e-05 
2.875202498134996e-05 
5.457596110712473e-05 
-5.345263762913681e-05 
-3.074626438071685e-05 
4.31697761380108e-05 
-7.462921750721171e-05 
-1.738339253229054e-05 
-0.0002349208794547058 
0.0001897671695832457 
3.916505087522835e-05 
-1.796445789084834e-05 
-0.0001207853878806392 
0.000112482842456707 
0.0002113770468803661 
7.034424381540231e-05 
-3.458426297012336e-05 
-0.0001524656139443798 
0.0001201186191133038 
-1.152728462818319e-05 
-9.498780962216767e-05 
1.902760453293562e-05 
7.472671349270778e-05 
2.482971184454134e-06 
0.0002520750187389882 
0.0002259513050212683 
7.538614350808999e-05 
-0.0001213872821734241 
8.43775928544203e-05 
1.713726602718764e-06 
-1.433615876099325e-07 
7.363364944629148e-05 
0.0002240639357029098 
-3.998562673307742e-05 
0.0001177095274204511 
0.0001366573833853281 
-5.011560117437931e-05 
-0.0001860637911927538 
-9.156284814836566e-05 
1.053450872697286e-05 
-0.0001017486958448449 
4.571852441636878e-05 
-8.628841598588761e-05 
8.629748098728615e-06 
-7.485860699432113e-06 
0.0001529001496958823 
-3.36150602397448e-05 
9.050010587356045e-05 
1.143224468328524e-05 
5.613813410212766e-05 
-8.291669908043184e-05 
0.0002145555429402112 
-0.0001315651839183707 
-0.0002019346890146988 
0.0001175419002880999 
0.000117441064088124 
0.0001150387581720707 
8.555504409614379e-05 
6.095625974104303e-06 
4.859832645538312e-05 
0.0002144159942834822 
8.064700269337925e-06 
-6.825617024012653e-05 
-5.211863209785017e-05 
-0.00011937977678816 
5.358275965461581e-05 
-6.987725054672603e-06 
0.0001695113600836891 
-5.492608681718707e-05 
4.699172743927995e-05 
-0.0001654359931725259 
0.0001466069352293359 
6.566727927141804e-05 
9.055161658920312e-05 
1.690871819282804e-05 
2.06151107721298e-05 
1.790950844070006e-05 
-0.0001299455650010161 
8.751299298195733e-05 
0.0001712657667741834 
-3.520057416071707e-05 
1.354755314760116e-05 
4.934238787679449e-05 
9.326070169454233e-05 
-2.587965298062685e-05 
3.269176894053189e-06 
0.0001014938333548136 
0.0001786634671022657 
-4.005217653468851e-05 
7.635351940229027e-05 
-0.0001401028993797592 
0.0001575440210598115 
-0.0002688212627015817 
-0.0001047366557670458 
9.830945168363521e-05 
-0.000256831901744771 
0.0001500144147769729 
-8.07248577748968e-05 
-4.675882058321072e-05 
4.165574809553196e-05 
9.205333198611753e-05 
-2.467324198745945e-05 
-6.175289727350501e-05 
6.845269517871871e-05 
-6.664959262576249e-05 
-8.567869078367985e-05 
8.378371212630718e-05 
-0.00010499560258614 
-0.0001850869414930734 
-6.764264380774513e-05 
-8.968048056185007e-05 
-2.946985285519003e-05 
-0.0001695680918902109 
-8.976410628581492e-05 
0.0002229927874168968 
-6.239748311404164e-05 
-2.029488141676529e-05 
0.0002391847682605057 
-4.263787203703687e-05 
-0.0001160047636307621 
0.0002191069656490662 
-8.454044346928342e-07 
3.312824821160388e-05 
-8.839315359789408e-05 
-3.685981723452839e-05 
7.612308889333924e-06 
0.0001961066076681909 
-4.871407470348647e-05 
8.591898427934917e-05 
1.742950252469356e-05 
-0.0001186208626167361 
-4.366265419527578e-05 
4.343221826248109e-05 
0.0001042191825166806 
9.022389380576681e-06 
8.689196964387503e-05 
6.006116970528609e-05 
0.0001921007508587578 
4.806106017863703e-06 
-1.731039459478326e-05 
3.171772784248764e-06 
-0.000117053602355836 
-0.000243208977477677 
-1.330050145291548e-05 
0.0001457247605478114 
0.0001791710598954497 
3.040410922386397e-05 
-0.0001931107273792394 
0.0002863425618282065 
-7.55379050307733e-05 
-0.0001158053170334755 
0.0001174576370016606 
-0.0002269501155883064 
3.283957760892091e-05 
-0.000218095204356217 
-0.0002153499400674167 
-0.000112319525037959 
2.594486092199718e-06 
-0.0002392662396026888 
-6.042727095756088e-05 
0.0001013718619188993 
-0.0002685683249944595 
-0.0003435684453077445 
0.0001138062263327728 
9.698828640992712e-06 
2.029433832171145e-05 
4.842525979872774e-05 
-3.569376550619951e-05 
7.757461921045834e-06 
-5.331400319518379e-05 
-0.0001300291428952543 
-9.400613381471665e-05 
2.042957342228347e-05 
-8.42456925718357e-05 
1.665066644005096e-05 
-4.177546026296385e-05 
-8.564005852598557e-05 
5.32842309204551e-05 
-0.0001504644396738865 
-2.717824131447438e-05 
0.000115401780252436 
0.0001010784886080666 
-0.0001161511194637701 
-6.427998221296581e-05 
-0.0001135351885950008 
8.225318249414593e-05 
-0.000172333523353357 
-0.0001273090875119414 
-3.16433476308747e-05 
-0.0001145176079382656 
7.870822605659725e-05 
-4.757107049261385e-05 
-0.0002372308490363093 
-6.038531470554094e-05 
9.096484186584288e-05 
0.0001976319785859729 
0.0001099902499589894 
3.023146264798062e-05 
-6.735529779047684e-06 
0.0002115998183907432 
-7.171634456585323e-05 
0.0002454660237804238 
-8.325500141860029e-05 
-2.554721553160182e-05 
-2.919849221207211e-05 
0.0002113671500665063 
3.803393116970091e-06 
-0.0001630615154587441 
0.0001214237927166242 
-3.577963411609188e-05 
-3.24290672306666e-05 
1.95270327398204e-05 
-8.436414113765177e-05 
5.916782340910845e-05 
-1.938637106662708e-06 
0.0001632498588412265 
0.0001825037877791829 
-0.0003006740522316548 
-1.434260749325176e-05 
0.0002122580262909142 
0.0001969377542234397 
0.0002062798852849531 
0.0001662778113594742 
-0.0001013042601430118 
-4.717200941224269e-05 
0.000275217233486859 
-6.802938377016508e-05 
0.0001415946254742817 
3.842695180374436e-05 
0.0001002544875636332 
-7.948213721520675e-05 
0.0001474478731889291 
-8.146995785429995e-05 
2.436346016861633e-05 
-9.351588618028573e-05 
3.94221309172495e-05 
0.0003031154812480817 
-0.0001924902016528702 
-9.681310010405197e-05 
-3.902170559086689e-05 
0.0002793164950133744 
5.202307934894664e-05 
-0.0001262092670973007 
0.0001068402071451974 
-9.966295489146258e-05 
-4.295511198342072e-06 
-5.443668317319177e-06 
0.0001024406488140824 
5.508778015117765e-05 
5.536010803691517e-05 
-0.000118496991645059 
7.887826924985818e-05 
-4.716369851810568e-05 
1.466756522744515e-06 
5.951381273881905e-05 
0.0001215208762510988 
6.956382904649415e-05 
2.177251114503793e-05 
3.127108571566668e-05 
4.103384852881911e-05 
2.727320395800619e-05 
0.0001083886765149196 
-1.194638316359602e-05 
0.0001269283388852841 
2.489468879995585e-05 
4.049514031173051e-05 
0.0001648200782898456 
9.114822842499729e-05 
-0.0001878073085619295 
-0.000111618788196985 
8.313545352895004e-05 
-7.469145105944394e-06 
-8.254283017313894e-05 
3.677662622179541e-05 
-8.493625575138783e-05 
-2.408097985543377e-05 
8.146653814372878e-05 
3.852573955840132e-05 
9.505535051521092e-05 
4.768419811168175e-05 
-0.0001138027690114451 
2.408139424115019e-06 
-7.683913218335118e-05 
-9.897214694129098e-05 
9.82340819850348e-05 
0.0001198942869140617 
-5.762180643537301e-05 
-7.904992822914544e-05 
-3.913640659441317e-05 
-8.030003032974555e-05 
-3.317266986186004e-05 
8.09570210597327e-05 
8.372422103760953e-06 
-8.713834930719144e-05 
-4.980069248379541e-05 
-0.0003224601283970573 
0.0001683051103521617 
-0.0002523454155419736 
-0.0001919197883879587 
7.568949177347239e-05 
8.577354057704336e-06 
0.0001532455532646301 
0.0001385709080518022 
0.0001332255921636224 
1.78022197185045e-06 
0.0001591313117465745 
5.702539645801754e-05 
8.080483067897231e-07 
-2.280448305502915e-05 
-0.0001735714321730406 
0.0001466742501741081 
0.0003244828068388775 
-8.846824549724083e-05 
-0.0001405783470232919 
-8.007013146898571e-05 
-0.0001280553061379659 
0.0001413582565683731 
0.0001568783353047203 
-0.0003649632162727492 
9.698329724274546e-05 
-1.654409135112032e-05 
8.542059899806552e-05 
-5.250270659135217e-05 
-1.012867148829274e-05 
5.159342543517975e-06 
-8.77398086457517e-05 
-0.0002040246734604399 
-0.0002886212151680775 
-8.751084285297178e-06 
6.426883362095439e-05 
-0.0001708507103386645 
-3.131675252675989e-05 
8.774074565274777e-05 
-0.00018859397011788 
-3.72861405689165e-05 
-0.0001538915615521123 
0.0001295961498845307 
-0.0001299931733646021 
-0.0002303578605339373 
1.618631039112161e-05 
-3.591952989217754e-05 
8.331165841248544e-05 
-6.573683114588167e-05 
8.723556587896031e-05 
0.0001619313149151654 
-3.637142807233448e-05 
-1.435865105712367e-05 
-3.149273000510733e-05 
0.0001855863971863233 
7.112665204966723e-05 
-0.0002292619120055473 
-0.0001158236882369779 
-1.125997703661432e-05 
-0.0001050694040755733 
-0.0001138608837745373 
0.0001188916375520771 
0.0001238458971860821 
6.460431883113965e-05 
0.0002024491109094881 
0.0002395204076806897 
7.065689960930153e-05 
0.0001741039913659474 
0.00010150775366273 
-0.0001444721705829479 
-0.000117526768849644 
0.0001664083436794967 
-2.906461779974031e-05 
-7.049925096251348e-05 
-0.0001120684453369132 
3.522327680318771e-05 
3.445337080017968e-05 
-5.17405714328154e-05 
0.0001401590296227718 
-3.266166919300277e-05 
0.0003454109518555562 
0.0001656883955816455 
2.988458870379002e-05 
0.0002100437521237205 
-0.000290941158102223 
6.913633509152129e-05 
0.0001183734964432671 
-3.350268433952552e-05 
-6.790603729819337e-05 
-2.215478822587269e-05 
-7.435886059365603e-05 
-9.463050293417261e-05 
-4.173329762795147e-05 
-6.398013312315602e-05 
0.0001477110158355788 
0.0002589481609033298 
2.679897798937662e-05 
0.0001666159353330066 
3.201855311077925e-05 
8.728843258720442e-05 
-8.242992498116017e-06 
-7.950778466561828e-05 
4.786382469109556e-05 
0.0001414257124719972 
5.746158825967959e-05 
-0.0001236834107620209 
-9.851659939237581e-06 
-3.319108243303029e-06 
7.663081696811264e-06 
6.052935608391708e-05 
0.0001880373634238215 
1.295234644420285e-05 
-7.937673027057519e-05 
-4.383334769499192e-05 
9.810332622948955e-05 
-0.0001075956565560453 
8.893144371300277e-05 
0.0001062163587987254 
9.421287298794764e-06 
5.657361607724738e-05 
-3.660243972774731e-05 
-1.457420492945547e-05 
-0.0001580160376072937 
-4.548009525867822e-05 
8.651773702890255e-05 
-0.0001792361523658005 
6.057004253228102e-05 
-0.0002973857513269898 
0.0001132981870561924 
1.401989952241696e-05 
-0.0002857925536944634 
-3.346844904084182e-05 
-2.031410275017382e-07 
-1.649227671848527e-05 
-0.0002110451108799986 
-8.653266559889301e-05 
-9.376259927426453e-05 
4.573164368888208e-05 
-2.474144667177844e-06 
9.819359001100039e-06 
5.460669728305934e-05 
-0.0002289156207845567 
-5.020646481836183e-05 
-5.852313159990195e-05 
-2.345644496308455e-05 
9.361457067711094e-05 
4.004091344514929e-06 
-0.0001304963779032967 
-0.0001577908184560066 
-2.573589557884972e-05 
1.220282011390395e-05 
6.350892177819583e-06 
-0.0002591797527756562 
-6.000609751617508e-05 
6.091296339686695e-05 
0.0001340184035972709 
-8.933064249464006e-05 
0.0001503143453226779 
-0.0001086766300277046 
2.370305715795488e-05 
-7.398028467223061e-07 
5.360670035149907e-05 
-0.0001607610797378995 
-4.836274262308164e-05 
-0.000362451119298712 
0.0001744359151936933 
-7.56705564990343e-05 
0.0001553335444333102 
9.682773904531359e-05 
-9.166109642177565e-05 
7.191513088957598e-05 
1.833965907259907e-05 
-4.069846706005844e-05 
-0.0001494695951651088 
-6.247535240270956e-06 
0.0001845413283548303 
-0.0002012179832995002 
1.989493065540559e-05 
0.0001246352736897704 
6.390175034832798e-05 
-0.0002111314184592037 
-0.0001371609327472412 
0.000117752002702632 
-0.0002598663060467456 
7.642279052348271e-06 
-8.75132093228279e-05 
8.376622723982979e-05 
0.0001306372338173646 
0.0003632467376744034 
-0.0002079710657010463 
-2.439861023553301e-05 
0.0001010312240355381 
-7.002669125874455e-05 
-0.0001121814590900567 
-6.274660486103918e-05 
-4.559411772238663e-05 
-0.0001607728134563296 
5.235425563186836e-05 
0.0001148096600498017 
3.279471045338446e-05 
-0.0002500288493069527 
9.822151770440588e-05 
0.0001118164479211251 
5.688188292967429e-05 
3.762494081757215e-05 
1.493280625927617e-06 
-5.706175163676557e-05 
-0.0002809555231746912 
-0.0001162484778752728 
-9.237152414230355e-05 
-7.619932801986697e-05 
7.707979457605554e-05 
-0.0002481692787775037 
8.630325692024315e-05 
0.0001027005004661118 
0.0001599512550708855 
-5.71277911730446e-05 
6.416394524346666e-05 
0.0001122601655742779 
0.0002469256512420126 
8.171553433818652e-05 
7.599383248374964e-05 
1.34617221663088e-05 
-3.945501320730644e-05 
-0.0001651497385348045 
0.0001787155154973465 
-3.07204624460297e-05 
5.979117462884604e-05 
8.329967402641238e-05 
-0.0001869021431864126 
-0.0002418703432556349 
-0.0002022053993045035 
0.0001874401256333864 
3.321373497669008e-05 
0.0002180966730878536 
-0.0001031423626193831 
4.618505784013397e-05 
-7.03395258370023e-05 
-1.242813220978318e-06 
-8.780322621150676e-06 
4.892047831080838e-05 
-0.0002362959587892399 
-4.264574712901022e-05 
-0.0001207521352073772 
7.540824784963236e-05 
-2.101836438302636e-05 
-0.0002021918211040577 
6.679845351541392e-05 
3.855484172000797e-05 
-0.0002280276481237508 
0.0001710135981505172 
4.554122455334757e-05 
-6.661305064948724e-05 
-0.0003491526304300384 
-6.005233106896414e-05 
0.0001129206537051183 
2.132946025377516e-05 
-0.0001372966942504216 
-4.905479355061742e-05 
-5.822528591947005e-05 
8.501449719517111e-05 
-7.992506024052356e-06 
0.0002203634740314862 
0.000145642937169765 
-3.54394551857507e-05 
1.277568899591267e-05 
-0.000123323958142828 
9.32899894848605e-05 
-7.941751553615227e-06 
3.345707898109134e-05 
-1.609485902219936e-05 
8.73718209816567e-06 
-7.987372134651462e-05 
5.952279033202408e-05 
-0.0001089237470196035 
-0.0001617240087810327 
0.0001275694416789816 
-0.0001399635430994711 
-6.888914369675427e-05 
-3.505400320887593e-05 
8.432476118758409e-05 
0.0001515649581980073 
4.519514068281092e-05 
3.315106967779573e-05 
-3.135030956141995e-05 
-1.88319756109244e-06 
-5.973434903869375e-05 
-7.105508169485724e-05 
-0.000199862379781844 
7.961196413391235e-05 
-6.52301623918163e-05 
-8.730282808043598e-06 
-0.0001678593463342857 
-6.274221651164759e-05 
-1.33119543042893e-05 
-8.996790931487773e-06 
0.0002355199386220252 
-3.501669217116886e-05 
-0.0001320842955116428 
-3.152341133001587e-05 
4.347568990567534e-05 
-2.251620157357631e-05 
-1.528669155062979e-05 
0.0001111259613552139 
7.721603098088032e-05 
9.907202472311351e-05 
0.0001384645152197678 
1.107059750016961e-05 
6.475169515768508e-06 
-6.983220051215425e-05 
-8.257907064966376e-05 
-3.101177587785596e-05 
-5.270503904727522e-05 
-0.0001258087295813354 
0.0001053146709186265 
-8.502510674785415e-05 
0.0001839239720545503 
-0.0001055402590620609 
-0.0001905544640073071 
-1.208889501705354e-05 
8.133099320477286e-05 
-4.120386047386464e-05 
0.0001948412755159684 
0.0002022626370969379 
-0.0002092731056180655 
-6.866492654437381e-05 
9.899150463060206e-05 
0.0001681350607911238 
0.0001136352773263187 
-0.0001328261655631084 
7.45468632383459e-05 
-0.000122021082313227 
0.0002076686953094241 
8.987546765090539e-05 
7.676976917414505e-05 
0.0001703202206560757 
-5.888732405981903e-06 
3.752146974518727e-05 
-0.0001266634361607211 
0.0001283619550416792 
-0.000121493600712168 
-0.0001710298425231703 
-0.0001943402868527049 
-0.0001766588228591505 
-0.0001002264933154267 
4.808722551408054e-05 
0.0001387711945859677 
2.684392501768235e-05 
-4.052269474276205e-05 
-3.603360880959567e-05 
0.000125450078430396 
0.0001095065706095782 
4.21766261854846e-05 
-1.070185922660091e-05 
-7.268343493740114e-05 
2.895522956301954e-06 
-0.0001133800884731672 
0.0002374839643444428 
0.0002005074496029608 
0.0001036808780575325 
-1.540762511830233e-05 
-3.380789997883523e-05 
0.0001479355240154388 
-0.0002746870316132311 
2.185259115441429e-05 
-1.194455954570661e-05 
-5.990937288752487e-07 
-0.0001592606733866015 
-7.457461138387115e-05 
3.880476317829116e-05 
-0.0001581947834331801 
-3.878909724513424e-05 
0.0001260763542419026 
0.0001345343037484999 
0.0001038075547224181 
-0.0001775957067886331 
-8.001050062611668e-05 
-9.237513400207289e-05 
-7.241437935245201e-05 
-7.091282308417672e-05 
4.057818146498504e-05 
-8.606054602732668e-06 
2.796055888125635e-05 
4.326602752169641e-05 
-2.648148665121636e-06 
-3.986773735218788e-05 
-6.556624900947468e-05 
0.0001515380627051239 
-6.921663045835828e-06 
-4.209950548202713e-05 
0.0001381115951284281 
-1.922621099817595e-05 
-9.417395898650024e-05 
-0.0001494571937241014 
-0.0001982957165450298 
0.0001678168250217161 
8.886198621379364e-05 
-1.233148233714579e-05 
4.692978818999787e-05 
4.114147976413152e-05 
-0.000174801360322326 
0.0001666195856733885 
-1.945352954647825e-05 
-5.58882351578292e-05 
2.506175301610183e-05 
0.0001717638744527914 
0.0001081020944626928 
-6.962264431996341e-05 
-0.0001025222294080055 
-1.955357406618619e-05 
4.479549166284579e-06 
-7.27217354994438e-05 
4.325234616857108e-07 
9.876749993659792e-05 
-5.757406695345945e-05 
-0.0002005003475576412 
-0.0001503090944885007 
0.0001340496269943391 
-7.288423611290751e-06 
0.0002050777465912255 
-7.067062020346689e-06 
3.651326070307461e-05 
2.613873675279687e-06 
0.0001583532388213105 
0.0002169959823972928 
-2.532088604384131e-07 
-2.672165349986511e-05 
-2.219297840777091e-05 
-0.0001119398215065449 
0.0001068611579783221 
0.0001768657007441258 
0.0001458913207959123 
0.0001020904755741885 
0.0001444322254987253 
1.337026279490163e-05 
-0.0001933716923193775 
4.158570505244349e-05 
-3.856524428865359e-05 
5.971161796429865e-05 
8.373761106720918e-05 
0.0001809953266393068 
-6.587468923095291e-05 
4.862714186307908e-05 
-8.184288711875631e-05 
-7.44188152650729e-05 
5.845298563802441e-05 
0.0001892808652477772 
0.0001155996498154817 
1.592966134264157e-05 
-1.850481626939402e-05 
7.640084318171674e-05 
0.0002611327993426723 
1.495134474408221e-05 
-0.00012981896644499 
8.776551965104615e-05 
9.670219461559939e-05 
1.969084092379638e-05 
0.0003498889081515814 
-5.18575931725908e-05 
0.0001302279464188111 
0.0001595194129754943 
6.215290265578953e-05 
7.836492504110198e-05 
0.0001577778396189872 
-0.0002539659845679419 
-2.798665557280052e-05 
-0.0001039136923730588 
8.069966057308913e-05 
-9.463363674372096e-05 
0.0001239487766946671 
3.844135994609935e-05 
2.302300243909083e-05 
-2.093747239709578e-05 
0.0001116543547179299 
3.90497948344672e-05 
2.67423572805033e-05 
0.0001052057640489221 
2.090358021146538e-05 
-6.687397276214196e-05 
8.712405856503338e-06 
0.0001120453480387831 
3.004650067996145e-06 
4.48852166858348e-05 
-3.721995257157859e-05 
-1.283943980215457e-05 
-0.0001159810530820875 
-5.415875790622024e-05 
-0.0001755836512715781 
-6.814325089017754e-05 
-4.703333171140113e-05 
0.0001314935717230447 
3.626201393488855e-05 
-7.421734546269899e-05 
6.260766991261413e-06 
0.0001980861102303025 
-0.0002978178165570822 
-2.159522749176158e-05 
2.562307473112367e-05 
4.169490068393475e-05 
-0.000134711329897935 
0.0001437594664457034 
1.863577369779882e-05 
0.0001351867599185466 
-2.636922368535617e-05 
0.0001714876872938741 
-8.555722202288995e-05 
-5.41351932964352e-05 
-3.79221452975373e-05 
-1.145683497776137e-05 
-0.0002267099241700871 
4.87116539458579e-05 
0.0002855044224527171 
-0.0001009382220167158 
2.567262263315388e-05 
2.726924143996418e-05 
0.0001610327636681695 
7.313249553757061e-06 
-0.000223248140765676 
-2.914864585121504e-05 
-1.283347481004125e-05 
-4.794510252862742e-05 
0.0001784911720482595 
-7.666223863675805e-05 
-0.0002526043670157474 
3.621341672488073e-05 
-0.0001671957495790646 
0.000105683827042131 
0.0001595418676582675 
-3.420424206158795e-05 
0.0001572096968130859 
8.390742994132539e-06 
0.0001179591920435003 
-6.251606924742744e-05 
-4.070461772655489e-05 
-8.582380919777539e-05 
0.0001064370950562847 
2.076576159502078e-05 
3.855010439781199e-05 
9.43491693637512e-05 
0.0001333017943600825 
-5.537334586513227e-06 
-0.0001404998437156945 
6.25734915788098e-05 
-3.31086580986238e-05 
4.564259673862187e-05 
-9.859940774063024e-05 
-8.587644766820206e-05 
3.242437778957102e-05 
3.459668884213332e-06 
6.736096852568519e-05 
-9.540983627367698e-05 
-5.807964423982417e-05 
-3.943073237848633e-05 
0.0003262032717913033 
-0.000116782369671663 
1.474567246321412e-05 
-8.358452080443338e-05 
4.951215412057561e-05 
-1.411297519038622e-05 
-0.0001082747207094476 
0.0001742257758071963 
-0.0002617334284810263 
0.0001276945231985601 
-6.791959842803682e-05 
7.532597404208875e-05 
-1.062537862079149e-05 
0.0001292324665461264 
6.236831961018246e-05 
-0.0001127998544415757 
0.0001207464266840035 
-6.607391765639757e-05 
-3.466387554875356e-05 
-4.789659677117557e-05 
0.0001413121460874344 
-0.0001184493646034036 
-0.00020001225833775 
2.335844018223089e-05 
0.00025484618372541 
-0.0001254055346053412 
0.0001363093311510682 
5.917778275825722e-05 
-4.400761539481403e-05 
-0.000167240287864152 
-0.0001144091137410274 
-0.0002688700348720891 
-6.76859988062244e-06 
0.0001247147900751688 
9.705568813412774e-05 
0.0001524574543890742 
-4.644156171417383e-05 
0.0002064593964072641 
-8.191532947563515e-06 
8.989742983745573e-05 
-5.673050791507663e-05 
-0.0003109936495011085 
-5.57891469335201e-05 
2.20378868189913e-05 
-0.0002112519440755337 
-3.023055581548567e-05 
0.0001171028075875606 
0.0001445764896348275 
-0.0001070384519611055 
-3.645997069281857e-05 
0.0001788118835738411 
-0.0001733596541822218 
6.094723673826112e-05 
0.0001105308263518079 
0.0001336133582310582 
0.0001638499414391888 
0.0001300998664220788 
1.208653832166188e-05 
-0.0001003052488950655 
-6.47595966253364e-06 
8.785416551061287e-05 
0.0001363494884857238 
-7.21705611932559e-05 
-5.646611812513782e-05 
-0.0002789950546474276 
9.230489690737145e-05 
9.123577169499612e-05 
-0.0001809769087575061 
0.0001423248224221214 
-0.0001324135705162784 
0.0002156943218493841 
8.017056068197059e-05 
-4.03932064127341e-05 
8.003183511227257e-05 
4.604016714106843e-05 
7.053463870246456e-05 
0.0001747270010828963 
0.000138126256799615 
2.082090065240702e-05 
0.0001064807329032956 
0.0001296274329673397 
0.0001225746928019153 
-0.0001699597907493199 
7.801159200786453e-06 
-0.0003581557489524602 
-0.0003262999300431316 
-5.495046827551406e-05 
0.0001132638933851316 
-0.0002097136984740876 
7.467795762367703e-05 
2.779231349563673e-05 
0.0001084141048796341 
6.090850239907598e-05 
-0.0002074061386592859 
-6.418484247624554e-05 
-8.374642243652251e-05 
9.179410454310122e-06 
7.304703748964014e-05 
0.0002547497178061759 
0.0001163533562629691 
0.0001569182132782815 
-6.38206363018829e-05 
8.383926247202992e-05 
0.0002439767814453773 
3.519170501781232e-05 
7.617102290047791e-05 
-4.729478648048152e-05 
4.627357809153952e-05 
9.324794214953419e-05 
0.0001812907751384412 
-2.277202997342931e-05 
8.297983245519563e-05 
-2.460130320496773e-05 
7.99194878092808e-06 
9.313079388897763e-05 
-5.94974304380156e-05 
1.819730398161531e-05 
0.0003010548129992364 
5.517591644433239e-05 
-0.0001894944344831888 
-6.572709727707172e-05 
-3.70670493092157e-05 
0.0001108876017694499 
-0.0001875955526560783 
8.037026056740263e-05 
-2.196730511044633e-05 
6.144220386190884e-06 
0.000148976883388216 
-3.564245145145476e-05 
-0.0002404176016628555 
-0.0001719328272725108 
6.581299620594422e-05 
-3.985327449142409e-05 
0.0002593702821625323 
6.991449299322848e-05 
1.70564736132817e-06 
-3.214259969778207e-05 
-2.610178227362658e-05 
7.385562912356497e-05 
-0.0001367668800569169 
-0.0002083182846839261 
-5.34764681642783e-05 
0.000128701132250406 
0.0001333809348405498 
-0.0001229942938092706 
0.0001847596872543116 
3.056536175677158e-05 
7.319871135269036e-05 
0.0001954847898356073 
0.0001283976444765571 
0.0003400422592976836 
0.0001264267124895333 
-6.267430936409001e-05 
0.0001335583420694356 
-0.0001199586497918802 
-0.0001028203499154042 
1.185176532493834e-05 
-8.063560796355388e-05 
-0.0001357391509361438 
-0.0003245433574171982 
5.622042344907681e-06 
1.267019087324708e-05 
6.18865420313886e-06 
0.0001962543362839916 
-1.077897215145232e-05 
7.973750820035364e-06 
-8.797837073641645e-05 
4.041611550331113e-05 
-6.800900249006988e-05 
-7.680907377994162e-05 
7.196361133627028e-05 
-0.0001554907806305555 
4.01399042363378e-05 
-0.0001759863072152601 
-0.0001183500864021782 
7.466283249472701e-05 
4.672452823099797e-05 
0.0001403167108663461 
-3.001939013212784e-05 
-2.014684963232268e-05 
4.838283345691539e-05 
-0.0001570204670702127 
0.0002465888809144217 
-7.530802344448276e-05 
-0.0002462057729298117 
5.783045515561672e-05 
-5.845692872619887e-05 
-0.0001086709790832376 
2.838190321250665e-05 
6.86645985040995e-05 
9.960511569665191e-06 
-4.774789840583876e-05 
-0.0001176225054630075 
-1.496737482049035e-05 
-0.000294485120012412 
-1.404677576452973e-05 
1.350044128573493e-07 
7.835415504271901e-05 
-0.0002742362083627471 
0.0001764864798997154 
-7.637798880738641e-05 
0.0001831406892071866 
9.159140958217879e-05 
-1.528419740332198e-05 
-0.0001072274709951964 
-0.000100328889882596 
0.0001311513983337712 
7.484647654301804e-05 
8.615138110356632e-05 
-0.0001464099116128279 
-6.977971540500734e-06 
-9.842811460141545e-05 
0.0001471826323938787 
0.000111981832626639 
9.582678769347261e-05 
1.523144421800093e-05 
-8.465681885481109e-05 
0.0001190607694280558 
-2.383726974428054e-05 
4.028820357269705e-06 
-0.0002689282289661985 
-3.445615260503955e-06 
9.776555505737893e-05 
0.0001522379356991719 
-7.435541800700556e-06 
8.850105740719034e-05 
-1.682348928934665e-05 
0.0001963545731699176 
-8.507357527418253e-05 
3.514300543637379e-05 
-8.156008109875569e-05 
-2.663252206892144e-05 
-3.11189668069109e-05 
4.70572094174648e-05 
-4.717393559669298e-05 
-7.444197131720188e-05 
-0.0001247571536777415 
-0.0001571715788384222 
-8.383312435027432e-05 
-3.635620595567337e-06 
-0.0001645691334606288 
-4.557105789772488e-05 
0.0001735285237650907 
-9.677423666836589e-05 
9.084568647337089e-05 
0.0001366649432986585 
-0.0001317100513772873 
3.600524940431346e-05 
-6.385403145282293e-06 
4.702858154555401e-05 
2.666286524112479e-07 
0.0001867059254524801 
6.912147479060222e-05 
-2.841184774692283e-05 
-4.142089321342052e-05 
0.0001242827972911187 
3.744519256497019e-05 
-7.445763788097027e-06 
3.968814111942047e-05 
2.617993688990072e-05 
2.906531233401607e-05 
-3.351131941239492e-06 
1.917598999871422e-05 
0.0003424618471705237 
-0.0001587257381786828 
9.066264799511492e-06 
-0.0001235142509286162 
-0.0001456562399778573 
6.036579291447874e-05 
-0.0001459442181283994 
3.791097608544081e-05 
0.0001950956457391011 
9.331466786756256e-05 
0.0001196113928262649 
5.493575313079392e-05 
-2.680088852665243e-05 
5.211018171125398e-05 
-0.0001869401846182631 
4.899507707351122e-05 
-0.0002423073775427491 
5.899373042455662e-05 
9.891945633723504e-05 
-1.50059100242532e-05 
-0.0001708280540370456 
0.000176826710193544 
4.012379481571951e-05 
3.474833195504573e-05 
-0.0001809591901489244 
8.68944224444402e-06 
4.594985262534972e-05 
2.222360528000405e-05 
1.734364409061668e-05 
9.365974980266353e-05 
-3.25250193227672e-06 
-3.903883276795102e-05 
-0.0001754777894721356 
-2.519802662319511e-05 
0.0003169826708989881 
-3.214610080558424e-05 
1.63735483666455e-05 
-4.111545359082223e-05 
-5.849305493694284e-05 
0.0001074915611444876 
3.223131605358249e-05 
-0.0001474010929654207 
-7.513463225252638e-05 
-0.0001212054290879379 
3.354382383940062e-05 
-0.0001749284573968565 
5.181616497620402e-05 
-0.0002698686608211844 
-2.516669613867009e-05 
-1.042538736856142e-05 
3.797975046739502e-07 
0.0002137846508780903 
6.256577207187556e-05 
0.0001970329404778369 
0.0001595679463449399 
6.16792157589278e-05 
8.919773531037389e-05 
-8.441919919505096e-05 
0.0001256200247882698 
0.0001026608994107716 
0.0001014323034113964 
-9.295760451321714e-05 
-0.0001202502340849612 
-6.836540598460223e-05 
2.948214502977536e-06 
-0.0001206534717895154 
-4.947709736510367e-05 
-0.0002576824728495924 
4.306402415842031e-05 
-5.895382179188829e-05 
4.85489336977289e-05 
-2.470822765715907e-05 
7.370224238286121e-06 
0.0002495392718054152 
0.0003111350767623988 
-3.316442045580365e-05 
0.000227635445783426 
-0.0001331693301491417 
-5.27857792398937e-05 
-4.577574061800426e-05 
9.287082194559852e-05 
9.393341842319281e-05 
0.0001528010692203068 
-4.812802971315323e-05 
-0.0002606729809316609 
-7.164674346879307e-05 
9.067035526487799e-05 
-4.478666164532468e-05 
9.681462021338797e-05 
-0.0002304433873644955 
0.0001759206433680242 
4.777848172662668e-05 
-8.357807096942105e-05 
-1.260518574721625e-05 
0.0001635012409665452 
4.001874880008962e-05 
-1.853142547717911e-05 
3.481644889600383e-05 
-9.196743270237375e-05 
-5.517381869315145e-05 
-0.0001086713581337849 
0.0001344464068668771 
-0.000188940530177182 
-0.0001113481443649222 
-8.748941970639624e-05 
0.0002685998431795126 
4.877287406966915e-05 
-3.330894880829126e-05 
-3.890265456579858e-05 
5.383560816652279e-05 
8.247855250492033e-05 
0.000187460663213942 
-0.0003620451007805735 
3.094899360357274e-05 
0.0001937889911949755 
-0.0001267151179633804 
2.887764994851125e-05 
9.130393888327782e-05 
2.464882385625465e-05 
-0.0001197130414344365 
-3.571161486986739e-05 
1.357258727288314e-06 
-7.060719990724478e-05 
-6.254889079200495e-05 
0.0001067090744199563 
7.115516704858866e-06 
2.520741642119727e-06 
-2.985062149144809e-05 
-5.448049855833105e-05 
6.886521867572781e-05 
-0.0003619033962418486 
0.0001088507162446594 
-3.921244852186497e-05 
-5.463881946860497e-05 
0.0001877395487571209 
-5.710207383716584e-05 
2.901383869477331e-05 
3.860327140326202e-05 
-0.0001185299081897223 
0.0002825653892801067 
-8.351029633240755e-05 
0.0003258515899426932 
-0.000136097877864265 
-6.930182315610272e-05 
0.000132814449241144 
-6.123029495412315e-05 
1.706612589499186e-05 
-0.0001283319417744602 
3.575482789057644e-05 
0.000140522338769987 
-3.942517607267778e-05 
-3.585111456998811e-05 
6.056721739557115e-05 
-4.653410044920312e-06 
2.410570961596512e-05 
-0.0001233309934489691 
-4.052767494105876e-05 
0.0002442674492927684 
-4.409673635348832e-05 
8.093872648768607e-05 
-0.0002154023219809427 
9.990354949571479e-05 
1.864588101009712e-05 
-0.0001356539140962567 
-9.602932228649661e-05 
0.0001276086718414081 
-6.151840081986478e-06 
-4.640555278867247e-05 
-1.652632692222236e-05 
-0.0001312449173231131 
8.409689774369095e-05 
-7.034845176909464e-05 
0.0001649840309735434 
-0.0001135408936301349 
4.736776001986281e-06 
-7.763711811744417e-05 
6.733466939437054e-05 
0.0002018474901345035 
6.808495794071355e-05 
-0.0001513154484923261 
-0.000180433885560567 
-5.109841581274537e-05 
-0.0001622343101553423 
2.807607594858431e-05 
-7.546955273062863e-05 
0.0001919550084543758 
-6.603114187921641e-06 
7.386294187357329e-05 
0.0001058407236829453 
-0.0001549164956057261 
0.0001808720776358463 
-0.0002252539467587112 
-5.57985430822423e-06 
-7.608291088796189e-05 
4.625747486582017e-05 
-4.549569333160222e-05 
5.070604871329154e-05 
-0.0001763604260188524 
-0.0002515996914746212 
-6.879502482574206e-05 
-8.15621177979677e-05 
0.0001766305169264831 
-5.118793048820382e-05 
0.0001182629091010456 
0.0001014803398407861 
-0.0001166861710316796 
-0.0001075234404282692 
9.479865213654985e-05 
-0.0002720351230933659 
-0.0001862295560463831 
-0.0002239686526324062 
3.318033153345384e-05 
0.000204223402840145 
0.0002472975647063625 
-0.0001415081033085609 
9.764596540971854e-06 
0.0001525752726992117 
-0.0002274964036943973 
-8.541968240766601e-05 
-0.0001404278246960212 
-3.036752627385571e-05 
-0.0002727793244913979 
7.410812640273503e-05 
-4.778085974899427e-05 
0.0001096056419820086 
-0.0002527663680805399 
0.0003146993726365344 
3.456656872009263e-05 
2.963823483053011e-05 
2.719665632305829e-05 
-0.0001268242079585897 
7.671261092929872e-05 
6.626506166979499e-05 
2.180741751636567e-05 
-5.779042650028692e-05 
4.255853075242831e-05 
0.0001292149010457107 
6.348262329131494e-06 
-5.070253775646074e-05 
0.000141409639289495 
0.0001860965193456907 
-3.253781994142656e-06 
-0.0001259361651750195 
2.44911002845084e-05 
1.09577214801981e-05 
-7.323271029835834e-05 
-2.149680019930001e-05 
5.294317239614395e-05 
0.0001178542538773419 
-0.0002008036160625404 
8.409525646890471e-05 
0.0001697175449315703 
0.0001331423837693424 
-2.155811253400762e-05 
0.0001711986122677312 
0.00030457939509207 
-7.213933991092476e-05 
-0.0003829689908854067 
3.815573057027543e-05 
-0.0001713748110878727 
-0.0002508466958515551 
-0.0001592936212850719 
-1.569985596885544e-05 
3.454711798298155e-05 
-1.336329207163743e-05 
2.601674325517569e-05 
1.868550802545264e-05 
0.000117163221608086 
-9.174866716138236e-05 
5.735941150082508e-05 
0.0001509823640380234 
2.758223286248693e-05 
8.602229027473661e-06 
-0.0001220497392991044 
-0.0001439330551371029 
1.853323507157134e-05 
-2.202420398407017e-05 
0.0002673863475209412 
-6.505671740432034e-05 
3.122917887343968e-05 
-8.331792081398919e-05 
7.796334240468564e-05 
-3.093725476272903e-05 
0.0001480616785533935 
-5.707738895567445e-05 
1.148016579966181e-05 
-0.0001449248492338339 
-2.822179449846468e-05 
4.727231016005461e-05 
6.794098210115161e-05 
-3.607970203020093e-05 
4.660293138207873e-05 
-6.996670799090875e-05 
9.335071133489723e-05 
0.0001314210998596247 
-7.751327661584572e-05 
4.243450068896624e-05 
-1.731111437175294e-05 
0.0001044965019481645 
-4.440841704441788e-05 
-5.170678981089642e-05 
9.057205246731704e-05 
-8.492078963576503e-05 
-7.80815975018544e-05 
-0.0002171195962451324 
5.930849060311347e-05 
-2.337229608773964e-05 
-0.0001410754061080003 
-2.535051264081411e-05 
0.0001207897991311101 
0.0001477949457162468 
-7.378405026985281e-05 
-9.789762959873621e-07 
-7.162708774560383e-05 
-2.303610698787748e-05 
0.0001291631327333083 
0.0002862487782912173 
-7.128070586526051e-05 
-0.0001534652293970665 
-4.259028348031191e-05 
-1.380885100024929e-05 
0.0003139638861151045 
0.0001728399216601855 
2.617124524495441e-05 
0.0001906866278413327 
-0.0001567736525006401 
-8.451894836913051e-05 
-0.0001552130806700055 
-7.39060331154796e-05 
6.639384774910098e-05 
0.0001470100850034277 
-6.543267605288844e-06 
0.0002183605122813096 
-5.110839174485015e-05 
-1.458889968468576e-05 
-0.0001199840615506515 
4.220206207590594e-05 
-5.554688308996619e-05 
0.0001445307183753671 
0.0001526250245449443 
-0.0002704601553348722 
0.0001056542551917594 
-7.641861678142884e-05 
0.0001461771087220237 
-6.345741514408107e-05 
-0.0002501908905249231 
4.644752960652636e-05 
-0.0002185696137209047 
-8.552465096742187e-06 
-1.139316950266184e-05 
0.0001119738124599385 
4.111096813835677e-05 
-8.843359400126503e-05 
6.798180009156001e-05 
-0.0001647409874799223 
9.969706253806608e-05 
2.443752333879185e-05 
-3.15837437973413e-05 
4.849907457138236e-05 
0.0001600497575545721 
0.0002600849273422434 
7.180419268827573e-05 
0.0001965047172491691 
0.000116493798014442 
-1.558354112855838e-05 
0.0002028661735522825 
-0.0001389795798393674 
3.110232962593053e-05 
0.0001341295474753916 
-8.033063226250172e-06 
0.0001729142156806308 
-0.0002282859329314312 
-0.0001492090140232585 
-8.999743554941151e-06 
-0.0001164499217440142 
-0.0001039481400675009 
0.0001347441320630369 
0.0001105858570329287 
-3.954863440878321e-05 
-0.0001401364915631252 
0.0001041766736326534 
5.560865294875893e-05 
-0.0003686994000700886 
-3.579799059044777e-05 
0.0001228126987752368 
0.0002451180642962947 
0.0001383917460921548 
-6.613967120071676e-05 
0.0001688714908786898 
-4.553370275202339e-05 
-9.401658028254244e-05 
-3.637180714758544e-05 
0.0002048386875403496 
-9.663731000172574e-05 
-5.254913776497908e-05 
0.000131174594896329 
2.090372883517014e-05 
0.0001498903636223392 
0.0002768474487941378 
-0.0001366773696068277 
2.943503164963075e-05 
-8.821506119612282e-05 
2.558734589108059e-05 
-0.0001534117152217275 
-0.0001344145301849116 
0.0001945461680221106 
-8.336307361137201e-06 
-0.0001317142345364536 
-9.191592765104714e-05 
-0.0001424353231428059 
1.827154275353455e-05 
0.0001455256659477465 
6.743196027575827e-05 
-2.561345089834404e-05 
7.827751395896741e-05 
-8.940007728119442e-05 
6.25173947351271e-05 
-0.0001929051266119433 
-7.971739560531797e-06 
0.0001011509412123824 
-0.0001117642220571727 
0.0001337840802687429 
-0.0001751961050220757 
2.193533992851404e-05 
-0.0001651713656348633 
0.0001267837745854155 
-0.0001237150229661921 
3.92487050091842e-05 
-2.703458869249679e-05 
-5.524016119433819e-05 
0.0001298274530361931 
-0.0001233415591284575 
-7.434500214112783e-05 
-0.0002007530437476798 
4.205758997276024e-05 
-0.0001884330520697514 
4.152564814619817e-05 
-6.776840850707262e-05 
-0.0001152472798023534 
7.285776995952531e-05 
5.597985156354489e-05 
0.0001059630516052875 
3.144367867143998e-05 
-0.0001169653877093464 
0.0002240107112736943 
1.245459435713837e-05 
-6.524490720506781e-05 
3.523312674097531e-05 
3.082040901116013e-05 
9.558193054619501e-05 
6.820362444583744e-05 
-7.365162801672902e-05 
0.0001111445147804588 
-0.000141515376549534 
0.0001263588161648493 
6.573108513867737e-05 
-2.309771900765498e-05 
0.0001560444825978535 
-0.000298766229806328 
8.906942900650076e-06 
-3.340375782243131e-05 
8.329931548002766e-05 
0.0001211388762836869 
1.926641897355648e-05 
-2.05435402582552e-07 
-5.236623327415443e-05 
-4.024973688920017e-05 
-0.0001589758543455758 
3.278252187699972e-05 
-8.363417397371664e-05 
5.152719107319852e-05 
-6.069115497112668e-05 
-0.000122586063363746 
0.0001523394471488347 
9.157925613939103e-05 
-0.0001703817732524435 
-4.167973097564199e-05 
-1.686590700136274e-05 
-7.133792777478775e-05 
-0.0002483157416922127 
-8.664786362554166e-05 
0.0001778139361920753 
-7.097132893025159e-05 
-3.871779510952561e-05 
-5.571801594753425e-05 
-2.629815589744325e-05 
-6.847218827815162e-05 
5.871422267078041e-05 
-0.000166530880197139 
0.0001169261972814804 
-0.0001779501438205604 
-0.000216476985850492 
0.0001048587089527576 
0.0001460291098219609 
-7.954683887134234e-05 
-4.345144049446191e-05 
0.0001789016138370176 
-0.0001212551302763914 
-0.0001045542698195989 
4.926430210648851e-05 
-0.0001777956087450555 
-0.0002106126674082102 
2.117583162034273e-05 
-0.0001751198151686786 
-0.0002012906277278197 
0.0001419581238111841 
-0.0002180754720638968 
6.30412256796639e-05 
1.305427768062433e-06 
-2.771289577683644e-06 
1.909841512453371e-05 
0.0001088567058694464 
0.0001734308415486832 
6.037465630810364e-05 
0.0001823801122293197 
-4.944303618286012e-05 
-6.183926568277075e-05 
-7.895030528516502e-05 
-0.0001464720301182405 
9.975054964091256e-05 
0.0001811691121169726 
-6.978297335948804e-05 
-0.0001092824775523425 
-0.0001345149781159619 
4.323150669618588e-05 
0.0001698169641943358 
1.253327784895327e-05 
1.740897543094572e-05 
3.827505615541427e-05 
7.638260631994652e-05 
3.218184247394613e-05 
-0.0001838567196885229 
0.0002480019902575982 
2.664132649716088e-05 
-0.0001003231239200913 
0.0001076186716458669 
0.0001029529891789438 
-0.0002877184331919996 
-6.886049724751251e-05 
5.169711620583662e-05 
-0.000231898327717746 
-0.0001909994271047073 
-3.750853831347123e-05 
-0.0002433453152822137 
0.0001778577224751259 
-0.0001533027959060405 
-6.005972769039185e-05 
-9.847738940192821e-05 
-2.243387875944733e-05 
5.934592818613862e-05 
4.065625732957877e-05 
0.0001204192878434228 
8.720155912109417e-05 
-6.927586556361554e-05 
1.971357084284498e-05 
-6.452070294928025e-06 
-6.285394517549077e-05 
0.0001042463748594989 
-2.722687662470584e-05 
0.0001456567263896996 
9.836111412258155e-05 
9.642823161528948e-05 
-0.0001787333114372633 
-3.429016578106036e-05 
7.758596638854782e-05 
-0.0001343022730156881 
0.0001444628512597677 
0.0002573917019929027 
-1.45228306632699e-05 
8.573705161451957e-05 
-8.835904300891662e-05 
0.000148032936072922 
-0.0002170037313400919 
-1.962987875599614e-05 
-4.685914322349896e-05 
-0.0001800686624132033 
-0.0001129134357833041 
-9.027663707665787e-05 
9.72014449844105e-05 
-0.000141550490015221 
-0.0001188358723561972 
-7.906865346035123e-05 
-1.829571085502596e-05 
6.785406466302108e-05 
8.119993547070217e-05 
5.953397896135626e-05 
0.0003900579761586925 
-0.0001085678696368013 
-9.721193415461994e-05 
6.922080322012674e-05 
-0.0001504101629163607 
0.0001013124611054268 
7.92488282477924e-05 
-0.0001189648029429694 
-8.468079798437283e-05 
-4.215265890731209e-05 
-9.998813196411691e-05 
-0.000125688494989697 
-4.589603436242189e-05 
9.375155782815951e-05 
-2.512886501223633e-05 
7.153941091321958e-05 
0.0001566682901396491 
-0.0001442637552322497 
-0.000312364093868558 
2.501893371225327e-05 
-2.987948679205731e-05 
7.827586461562973e-05 
3.569825415499207e-05 
0.000167167573410043 
2.765284529470171e-05 
4.312769500017457e-05 
-5.865369826482963e-05 
-4.958028893561264e-05 
-4.66475090894934e-05 
0.0002232873142200787 
-2.799538449062145e-05 
-0.0001064588355532853 
-0.0002648192319607539 
-3.768068128765032e-05 
-1.007158012430056e-05 
3.441870888225118e-05 
-1.303749663600644e-05 
-6.673205181886593e-05 
3.917489194958398e-05 
0.0001292173887057593 
0.0001025137859420234 
-6.68241580510432e-05 
-0.0001106793445555504 
-9.107903159547231e-05 
0.0002122149629579377 
-4.261455660602994e-05 
-1.326491718629023e-05 
5.011592676935375e-06 
0.0003048267595661805 
0.0001239408317382413 
0.000121246322266828 
-2.699778054703296e-05 
2.458436496270545e-05 
-9.851204358762725e-05 
4.955400615104089e-05 
0.0001285880139796927 
-7.391698293245028e-05 
-4.64575752487362e-05 
-9.707242460843788e-05 
-0.0001183747731022038 
9.184946866447612e-05 
8.053863213861026e-05 
0.0001400691115690627 
-9.574532284824984e-05 
-0.0002404210333910953 
0.0001476541975751379 
-2.779394779569288e-05 
0.000113813815673975 
-0.0002272256865104217 
4.568867084152846e-05 
9.882745627908912e-05 
4.852552386221613e-05 
-2.992928768815898e-05 
-6.375368269092835e-05 
0.0001138287766044024 
-5.174036303271219e-05 
-3.225063409633304e-05 
-0.0001282695797694502 
-1.31810096392163e-05 
0.0001305878059804947 
-0.0001424352058914182 
0.0001192247201747006 
3.563825895607983e-05 
-0.000147517548464876 
0.0001716717960641298 
7.719955047121943e-05 
0.0003033730870505447 
1.096648129099315e-05 
-0.0002403294175782196 
-8.87083230868476e-06 
7.178129771418372e-05 
-7.905588517028965e-06 
-2.710862694646481e-05 
0.0001139996675748442 
6.374571551972235e-05 
-2.096593669188853e-05 
-2.696038928710388e-05 
8.412358666327537e-05 
-6.481463318801342e-05 
9.229225469793342e-05 
-0.0001103351696187795 
3.484579248939903e-05 
-0.0001315934800836164 
1.72080972533442e-05 
3.644587211991239e-05 
-0.0001463312964094445 
-2.867486316686209e-05 
0.0001374959689833146 
-0.0001411280299037505 
7.612631785966374e-05 
-2.979414936365589e-05 
6.192850485053019e-05 
7.203558527175381e-06 
3.185668542300872e-05 
0.00010266442470398 
-0.0001160156285862499 
-0.0002111586226926042 
1.720191610632487e-05 
3.670004548020134e-05 
-4.482363308109424e-05 
0.0002184754938946911 
0.0001403180987506998 
-1.44641697017794e-05 
9.742537369179203e-05 
-5.790638387716057e-05 
-0.0001299836935292244 
0.0001421318582517678 
6.550315345807817e-05 
1.297903634313315e-05 
-0.0001616123634982135 
6.269896820738689e-05 
-9.123030094368309e-05 
-0.0001178743434777803 
-8.769201862179795e-05 
-6.546183044208386e-05 
0.0001091858922022041 
8.412379244942511e-05 
8.182160578739674e-05 
1.114531737065446e-05 
2.731925602056609e-06 
-9.226386728823169e-05 
5.582432986471291e-05 
1.905379759923592e-05 
-8.324246565674068e-05 
9.176127366367397e-05 
0.0001871900171482734 
7.873086474263373e-05 
-0.0001157737327372016 
-0.0001891587050762156 
5.20822573606509e-05 
-9.093093288095799e-05 
0.000104356897432841 
0.0001024570059837248 
-0.0002352032276274827 
0.0001719371020634737 
-0.0001641955711710266 
-0.0001560959217480281 
-0.0001552468182599656 
-0.0001301883241244681 
-0.000149116161135976 
0.0002889013861162547 
8.850257631234348e-05 
6.813835072707449e-05 
2.321057048263085e-05 
6.906726710595881e-05 
-0.0004036643389167884 
-5.865387463252674e-06 
-0.0002798933914088523 
-0.0001463573921049679 
7.53369986630191e-05 
2.510347020768577e-05 
9.320813280734966e-05 
7.25148194386327e-05 
0.0001655302096113958 
-2.236003925706021e-05 
7.389332125600387e-05 
7.09633652429631e-05 
-2.821589577063396e-05 
0.000161244944111552 
-5.850488529296856e-06 
0.0001723521920418219 
-9.026480892201641e-05 
0.0003200599907123047 
0.0001681381167128138 
-1.989729097606164e-05 
-6.463402414834687e-05 
3.313541402701027e-05 
-0.0003614768788533158 
1.250276375313997e-06 
-7.785286632787016e-05 
0.0001001073685935148 
0.0001358525410255618 
0.0001037583651208167 
1.19606112680635e-06 
-0.0001067937297392429 
-5.133445343849967e-05 
0.0001014606774929071 
-9.25416019599398e-05 
0.0001238179079666756 
-0.0001479138185290347 
7.07216798435073e-05 
-6.617841852984268e-05 
9.666815675999954e-05 
-0.0001381341744573242 
3.909242462673041e-05 
0.0001104082127341564 
-0.0001786070638279583 
0.0002642068613579851 
-0.0001805189349409133 
1.904855621548681e-05 
-5.082578607588588e-05 
-5.943275924508229e-05 
-9.627085567070021e-05 
5.627008365853176e-05 
8.304837105228221e-05 
-1.075487215500891e-06 
-0.000208717575974789 
-2.349415180223747e-05 
0.0001120686571553181 
-1.23163800140661e-05 
-9.567055909933094e-05 
-8.918893581097613e-05 
0.0001522004073018027 
-0.0002373642431245451 
0.0001521156217716387 
-9.437078985542337e-05 
-4.08517638752038e-05 
0.0001579008933422668 
0.0002107540040501087 
-0.0001194752957164248 
-0.0002758505654702369 
3.756491132930752e-05 
0.0002701042679589024 
8.432131835834688e-05 
0.0001535177209036705 
1.692421072102387e-05 
3.594885967074392e-05 
2.108242439797912e-05 
-0.0001409358601240775 
-0.000235472333799369 
-0.0001015479455524285 
-1.019802200026134e-05 
0.0001463620600089875 
2.406867488336507e-05 
0.0001751006535022864 
0.0001126756503591984 
0.0001052142915183482 
-0.0001274381056190369 
0.0001528722334857288 
0.000227933877808605 
-0.0003477028071816301 
0.0001459866884574569 
-2.820120753184914e-05 
-2.668938623002543e-05 
-0.0002475195220074195 
-2.938490195460313e-05 
-0.0002400555606826832 
7.963256424924844e-05 
3.341092484121881e-05 
0.0001636766338480252 
-9.214506073592724e-05 
-0.000385228976098241 
-0.0001296408221739385 
-3.119469144527357e-05 
4.883858999264906e-05 
7.942115414262075e-06 
-4.409073500950912e-05 
0.0001457988324314431 
-0.0001243184851679225 
2.610262286425306e-05 
-0.000197689351017509 
8.221371831087814e-05 
4.733982394945347e-05 
-1.432000069179654e-05 
-0.0001239001597234228 
-0.0001221693755415447 
4.270333618932624e-05 
2.904377877253241e-05 
-5.523862966245765e-05 
-2.39427194123819e-05 
-0.0002325687479738638 
-8.782723650666027e-05 
2.728509473927721e-05 
9.525733580863779e-05 
-0.0002998737629935046 
5.356794393033355e-05 
-0.0001325566155068648 
4.464658135233297e-05 
0.0001081489145772494 
-2.90132044885379e-05 
-0.0002840427480354467 
6.244743384724183e-05 
-1.450143146038699e-05 
-2.25966504745839e-05 
-0.000169631203744444 
-4.277307781715401e-05 
-0.000109138902990205 
-0.000148548213727615 
0.0001455023001124794 
-0.000172270708845828 
-2.886226497386707e-05 
4.532767765387849e-05 
-0.0001058276050854302 
0.00016772262767464 
-0.0001055938330281257 
0.0002197649117926551 
7.790709733259528e-05 
0.0002156135953210554 
2.18136620215838e-05 
0.0001616543095551155 
0.000276685007597895 
-0.0001671224356576384 
0.0001067531529034402 
-0.0001198781128200054 
-0.000233938191217451 
0.0002747360530706655 
-5.615907668627068e-05 
-0.000138690889982361 
-0.0003736879453400505 
-6.439590711438878e-05 
-0.0002151383870664014 
-6.183501919364717e-05 
-4.572433337417286e-05 
7.544920565946118e-05 
4.830525536477365e-05 
-0.0002652783066902451 
1.364985298039234e-05 
-2.385285155281644e-05 
2.750316898283699e-05 
9.658054504427427e-05 
7.699011368155519e-06 
4.540803509656975e-05 
2.041166366846344e-05 
9.484034603164987e-05 
-9.041877989327153e-06 
8.91076073142901e-05 
5.35641062510882e-05 
-9.682909996890156e-05 
4.504608158675373e-05 
-0.0001268458781672415 
1.761029749604345e-05 
0.0001779540057740369 
6.56234442691444e-06 
-4.712101703395723e-05 
-7.665879072090489e-05 
3.082478948933023e-05 
-0.0001556333520818918 
0.0001131529201254933 
-8.667505474624309e-05 
0.0002007140920983999 
3.046915368700267e-05 
-6.211353662160806e-06 
9.636251585571984e-05 
6.191781091785599e-05 
8.445646642137267e-05 
7.103022719198658e-05 
6.673917251704108e-05 
-2.160178799992651e-05 
0.0001261878209996022 
3.405957934427405e-05 
5.672309912981519e-05 
7.797970728182946e-05 
-0.0001933262519445136 
0.0001622431289481898 
-8.31247071201371e-05 
0.000160774233268562 
-0.0001829613285607944 
5.939266247693295e-05 
-8.512135318885923e-06 
-0.0001772588578110135 
-0.0001482374455047691 
0.0001955281607522469 
-0.00012266662874367 
-0.000235621593698734 
-0.0001063192359596002 
-7.203262071230338e-05 
-3.986705212685738e-06 
-0.0001879679761231185 
-0.0002505447552299405 
-0.0001092404714250488 
-8.802220334642401e-05 
0.0002001407994404962 
-7.183763665228366e-05 
-0.0002203115585502922 
9.849458267008229e-06 
-3.071411395815874e-05 
0.0001443235223302263 
-0.0002163974543236714 
0.0001289112363703508 
-0.0001797021124778348 
-0.0001593551540309067 
-0.0002688938955626308 
0.0001179092025483903 
3.126313376333077e-05 
-2.715450085437344e-05 
1.630383496336307e-05 
0.0001379021021194891 
6.667179485544306e-05 
3.10845104739239e-05 
-0.0001118217630749706 
4.695676096279588e-05 
1.548798544809163e-06 
-0.0001386822763396139 
0.000126972939412428 
0.0001692424970016007 
0.0001068013298758798 
-8.658885254351932e-05 
-3.798470137595186e-05 
0.0001154952662358194 
4.936086625555709e-05 
-4.894812444730309e-05 
-7.852618608031672e-05 
1.733034365320734e-05 
9.569900774595963e-05 
5.651700194413784e-05 
0.0001028660386488113 
0.000140628445706457 
9.079160838123541e-05 
-4.570649832590193e-05 
2.903866952115059e-05 
0.0001016817502797412 
-7.861947264106639e-05 
0.0001089356325642001 
-5.459641687332253e-05 
9.256973745443633e-05 
-3.482021765598632e-05 
1.763906003073867e-05 
2.554061574586525e-05 
-1.721471019138796e-05 
-3.222380969681654e-05 
-0.0001018959002324448 
-0.000107742413711142 
-0.0003100951749339613 
-4.327075267022533e-05 
-0.0001237120949654111 
3.793339114755885e-05 
-6.725472756429244e-05 
4.958038970519006e-05 
-0.0002348018166998518 
9.801645216335269e-05 
-0.0001048667017519398 
5.724285648164725e-05 
-0.0002346908524645952 
8.422993845193927e-05 
-6.015289430045529e-05 
-0.0001527112721590605 
1.553710996847166e-05 
8.835651824230654e-05 
-0.0001280644867986148 
1.205595003077637e-05 
7.870453990061415e-05 
0.0001699718885703613 
-2.537995628465541e-05 
-4.018293460571762e-05 
-0.000108034467950086 
8.020729129107354e-05 
-0.0001125400507494785 
0.0001816336727190417 
-0.0002271624348479785 
4.173631136268824e-05 
1.152645473291166e-05 
3.774726901125165e-05 
-6.166381391688514e-05 
-0.0001134027467175908 
9.448695200694119e-05 
-6.841204667478004e-05 
0.0001086424920944069 
-2.354826791220645e-05 
-0.0001376917774206099 
1.355804453147015e-05 
0.0001351382427837393 
-6.6036715819169e-06 
-0.0001462275927571054 
1.877106714751174e-05 
3.919269376358231e-06 
0.0001123794841949056 
7.535152742205748e-06 
-0.000152450536575946 
8.437319081977354e-05 
-0.0003695939069575156 
-3.256937651911143e-05 
5.970966083249052e-05 
5.984392247739843e-05 
0.0001179873244270506 
-0.0002295563854858478 
-2.615486352034988e-05 
-0.0001716891677399992 
-0.0001107626978936778 
3.487239243193267e-05 
0.0002483846961412748 
-4.96052166456937e-05 
0.0001610263289293279 
5.76688091761732e-05 
0.0001228748016303 
1.952574227028581e-05 
5.802842222667557e-05 
-3.219982294365442e-06 
9.733058552613004e-05 
5.056284345967858e-05 
-3.901858982372792e-05 
-0.0001779060749633556 
0.0001212649714456377 
6.497680635907175e-05 
0.0001890791285695552 
9.616452940278819e-05 
7.339060992440181e-05 
-0.0001014976329998095 
-0.0001033894284426645 
-2.173800445125001e-05 
0.0002465956823545179 
-5.832735780500177e-05 
0.0004001702698404182 
-8.743458680727453e-05 
-0.0001522276350213458 
-0.0001976885901976951 
-0.000204134956127325 
2.224674215841674e-05 
-0.0001311116402894037 
-0.0001149533203888639 
-9.275204080410065e-05 
-5.097361734119806e-05 
5.940262825868559e-05 
2.815016699642033e-05 
-3.092585877938649e-05 
0.0002583080029084174 
-1.144275557567168e-05 
-0.0002372437859547372 
4.260406315104705e-05 
-0.0002180495991470877 
-0.0001726115154318655 
-0.0001372216079378093 
0.0001010046747254282 
5.16205802625886e-06 
-0.0001494934136445638 
-0.0001428202244483962 
-5.855132789856567e-05 
-2.356131708026711e-05 
0.0001872202285894178 
-1.944073492275567e-05 
0.0002026697225677156 
-4.04283389102941e-06 
0.0002425486675380083 
-0.0001030651700073352 
7.885475775175444e-05 
-7.057276793540914e-05 
0.0001624921772717735 
8.156150375353596e-05 
0.0001189567599975729 
0.0001418549049773179 
0.0001636014743772325 
9.084391731540221e-05 
-0.0002824837658899866 
-8.858294580195099e-06 
-3.788128571198961e-06 
0.0001262633473863738 
-4.823804075539203e-05 
-0.0001198625607439707 
-6.588341914806469e-05 
-4.739085168105185e-05 
-7.765196611191811e-05 
5.739313150555873e-06 
0.0001623122812321334 
6.385887756319897e-05 
1.317304806497057e-05 
-4.673903525727726e-05 
-4.11090111492921e-05 
-0.000165278931829676 
9.435005160620163e-05 
-6.296616945981438e-05 
0.0001249972114058087 
5.649183708119476e-05 
5.342956322489497e-05 
9.745057253554553e-05 
0.0001677577351151577 
-0.0001876276867290785 
6.058872667290568e-05 
3.61433021564348e-05 
0.0001121396877219595 
7.561192535973997e-05 
0.0001045583041279664 
-9.935746854517093e-05 
3.271059916792287e-05 
5.450337959473771e-07 
-8.909287514409592e-05 
-0.0001491534407846984 
-9.960265491926476e-05 
0.0001132798191823155 
-9.099066012631356e-05 
-6.988828476226178e-05 
3.926164572594173e-05 
2.125548497580323e-05 
6.423341022249002e-05 
0.0002003308683298366 
-1.366997312201135e-05 
-4.105434730349556e-05 
-3.111594448766245e-05 
0.0001159452872475719 
0.0001405297557103942 
0.0001657028264419125 
8.558702593968895e-05 
-0.0003238791576885968 
-2.457063490566831e-05 
0.0001057853417761133 
0.000166641966826344 
-0.0001084212148776875 
8.41283854168571e-05 
-0.0002480783283363874 
0.0001122846927756292 
4.184105351858481e-05 
2.029715585500784e-05 
-0.0001474718416087848 
5.160217015199905e-06 
-9.847453243680222e-06 
-8.163270511805445e-05 
-1.536880056851804e-05 
-2.452212432991698e-06 
-0.0002202534901018757 
-6.901491661778767e-05 
-3.375617099697617e-05 
-3.672715444889567e-05 
5.868077633616436e-05 
2.999485397453371e-05 
-6.078611340378166e-05 
-1.039038812986717e-05 
0.000296817955865077 
0.0001560329157125712 
-7.622875479968154e-05 
4.595355072563809e-05 
-1.798646106255649e-05 
-0.0002155725384068093 
5.687636902915314e-05 
0.0001040113802611499 
-2.833383346650264e-06 
7.047627541300608e-05 
-3.051140117187984e-05 
-5.213525215766441e-05 
-0.0001636146878068235 
-6.804899424612068e-06 
-4.864912660404879e-05 
-8.517700247468785e-05 
-0.0001174568082878274 
-9.714753356860829e-05 
-2.468160128655779e-05 
-0.0002453993808291452 
-0.0003598079059613028 
-0.000106579382491102 
-9.05296008862752e-05 
0.0001059085868959857 
0.0001001121533816721 
-9.264251652696718e-05 
0.0001723592931708646 
-5.614261823919159e-05 
0.00027584620071309 
0.000112832495948265 
-0.0001710349973436253 
8.155306969563882e-05 
-9.415130582610778e-05 
-9.485133496471408e-05 
6.260517992704722e-05 
-5.301999179001393e-05 
0.0002399027525019269 
3.245881114513377e-05 
0.0001342876000489653 
0.0001379697940287596 
3.759133458702924e-05 
5.857257086311322e-05 
-4.283636639750719e-05 
5.26079247848599e-05 
-6.317212688275266e-05 
3.619743041856035e-05 
-0.0001854680368250737 
-0.0001278508262975713 
-1.212943196932794e-05 
-0.0002147535465653219 
-0.000140685996359067 
3.240655902442666e-05 
-2.503520937912166e-06 
0.0001690868478461954 
4.782763549626778e-05 
-5.773548876303454e-05 
-3.121554911585635e-05 
0.0002783927847118447 
-2.367082450725156e-05 
-6.19738280222805e-05 
